{"learner":{"attributes":{"scikit_learn":"{\"_estimator_type\": \"classifier\"}"},"feature_names":["average","vwap","feat_dist_vwap","log_ret","feat_vol_15m","feat_vol_impact","feat_rsi_14","feat_spread_proxy"],"feature_types":["float","float","float","float","float","float","float","float"],"gradient_booster":{"model":{"gbtree_model_param":{"num_parallel_tree":"1","num_trees":"100"},"iteration_indptr":[0,1,2,3,4,5,6,7,8,9,10,11,12,13,14,15,16,17,18,19,20,21,22,23,24,25,26,27,28,29,30,31,32,33,34,35,36,37,38,39,40,41,42,43,44,45,46,47,48,49,50,51,52,53,54,55,56,57,58,59,60,61,62,63,64,65,66,67,68,69,70,71,72,73,74,75,76,77,78,79,80,81,82,83,84,85,86,87,88,89,90,91,92,93,94,95,96,97,98,99,100],"tree_info":[0,0,0,0,0,0,0,0,0,0,0,0,0,0,0,0,0,0,0,0,0,0,0,0,0,0,0,0,0,0,0,0,0,0,0,0,0,0,0,0,0,0,0,0,0,0,0,0,0,0,0,0,0,0,0,0,0,0,0,0,0,0,0,0,0,0,0,0,0,0,0,0,0,0,0,0,0,0,0,0,0,0,0,0,0,0,0,0,0,0,0,0,0,0,0,0,0,0,0,0],"trees":[{"base_weights":[4.1918177E-8,-5.120756E-1,2.9708594E-1,1.2590322E-1,-9.805755E-1,3.3523634E-1,-1.864533E0,6.815632E-2,-4.7150194E-3,-7.336519E-2,-2.9766379E-2,4.8653004E-3,2.8507987E-2,-9.312927E-3,-9.714286E-2],"categories":[],"categories_nodes":[],"categories_segments":[],"categories_sizes":[],"default_left":[0,0,0,0,0,0,0,0,0,0,0,0,0,0,0],"id":0,"left_children":[1,3,5,7,9,11,13,-1,-1,-1,-1,-1,-1,-1,-1],"loss_changes":[5.072029E2,3.6599466E2,1.746224E2,1.4157538E2,1.3149127E2,1.1588095E2,4.468178E0,0E0,0E0,0E0,0E0,0E0,0E0,0E0,0E0],"parents":[2147483647,0,0,1,1,2,2,3,3,4,4,5,5,6,6],"right_children":[2,4,6,8,10,12,14,-1,-1,-1,-1,-1,-1,-1,-1],"split_conditions":[1.2624105E-3,2.64865E2,2.92733E2,2.54251E2,8.867558E-4,2.6894504E2,-1.5320857E-3,6.815632E-2,-4.7150194E-3,-7.336519E-2,-2.9766379E-2,4.8653004E-3,2.8507987E-2,-9.312927E-3,-9.714286E-2],"split_indices":[4,0,0,0,4,1,2,0,0,0,0,0,0,0,0],"split_type":[0,0,0,0,0,0,0,0,0,0,0,0,0,0,0],"sum_hessian":[3.332E3,1.2230874E3,2.1089126E3,5.181834E2,7.0490393E2,2.0731682E3,3.5744415E1,7.750849E1,4.4067493E2,3.101928E2,3.9471112E2,1.0306951E3,1.0424733E3,1.7444147E0,3.4E1],"tree_param":{"num_deleted":"0","num_feature":"8","num_nodes":"15","size_leaf_vector":"1"}},{"base_weights":[-3.673447E-5,-4.8674893E-1,2.8223652E-1,8.3580196E-2,-9.6341E-1,3.1852496E-1,-1.7781514E0,6.486752E-2,-5.7338076E-3,8.632372E-3,-5.554039E-2,4.6222913E-3,2.708955E-2,-7.424594E-3,-9.275962E-2],"categories":[],"categories_nodes":[],"categories_segments":[],"categories_sizes":[],"default_left":[0,0,0,0,0,0,0,0,0,0,0,0,0,0,0],"id":1,"left_children":[1,3,5,7,9,11,13,-1,-1,-1,-1,-1,-1,-1,-1],"loss_changes":[4.5792145E2,3.3269092E2,1.5829863E2,1.3440921E2,1.118078E2,1.046342E2,4.327736E0,0E0,0E0,0E0,0E0,0E0,0E0,0E0,0E0],"parents":[2147483647,0,0,1,1,2,2,3,3,4,4,5,5,6,6],"right_children":[2,4,6,8,10,12,14,-1,-1,-1,-1,-1,-1,-1,-1],"split_conditions":[1.2624105E-3,2.6795074E2,2.92733E2,2.54251E2,-8.64658E-3,2.6894504E2,4.3245678E1,6.486752E-2,-5.7338076E-3,8.632372E-3,-5.554039E-2,4.6222913E-3,2.708955E-2,-7.424594E-3,-9.275962E-2],"split_indices":[4,1,0,0,2,1,6,0,0,0,0,0,0,0,0],"split_type":[0,0,0,0,0,0,0,0,0,0,0,0,0,0,0],"sum_hessian":[3.3311052E3,1.2224905E3,2.1086147E3,5.569362E2,6.655543E2,2.0729504E3,3.566429E1,7.741855E1,4.7951764E2,7.6415565E1,5.891388E2,1.030689E3,1.0422615E3,1.7420431E0,3.392225E1],"tree_param":{"num_deleted":"0","num_feature":"8","num_nodes":"15","size_leaf_vector":"1"}},{"base_weights":[-5.945475E-5,-4.629983E-1,2.681971E-1,7.9558745E-2,-9.170851E-1,3.0270663E-1,-1.7024871E0,6.1868917E-2,-5.4479106E-3,8.205324E-3,-5.2884128E-2,2.404025E-2,2.1341646E-3,-8.888013E-2,-6.445899E-3],"categories":[],"categories_nodes":[],"categories_segments":[],"categories_sizes":[],"default_left":[0,0,0,0,0,0,0,0,0,0,0,0,0,0,0],"id":2,"left_children":[1,3,5,7,9,11,13,-1,-1,-1,-1,-1,-1,-1,-1],"loss_changes":[4.1363348E2,3.0112595E2,1.4392827E2,1.2185597E2,1.0130725E2,9.599527E1,4.0783997E0,0E0,0E0,0E0,0E0,0E0,0E0,0E0,0E0],"parents":[2147483647,0,0,1,1,2,2,3,3,4,4,5,5,6,6],"right_children":[2,4,6,8,10,12,14,-1,-1,-1,-1,-1,-1,-1,-1],"split_conditions":[1.2624105E-3,2.6795074E2,2.92733E2,2.54251E2,-8.64658E-3,-1.4820551E-4,9.506947E-3,6.1868917E-2,-5.4479106E-3,8.205324E-3,-5.2884128E-2,2.404025E-2,2.1341646E-3,-8.888013E-2,-6.445899E-3],"split_indices":[4,1,0,0,2,2,7,0,0,0,0,0,0,0,0],"split_type":[0,0,0,0,0,0,0,0,0,0,0,0,0,0,0],"sum_hessian":[3.3287478E3,1.2209645E3,2.1077832E3,5.566667E2,6.642978E2,2.0723398E3,3.544329E1,7.716662E1,4.7950006E2,7.642484E1,5.87873E2,1.2294209E3,8.4291907E2,3.3704712E1,1.7385815E0],"tree_param":{"num_deleted":"0","num_feature":"8","num_nodes":"15","size_leaf_vector":"1"}},{"base_weights":[-8.7654036E-5,-3.3078063E-1,3.4515503E-1,-2.660541E-1,-9.144377E-2,3.7600622E-1,-1.5854688E0,-1.732275E-2,4.242269E-2,3.8061175E-2,1.247396E-2,1.3935888E-2,-8.4536724E-2],"categories":[],"categories_nodes":[],"categories_segments":[],"categories_sizes":[],"default_left":[0,0,0,0,0,0,0,0,0,0,0,0,0],"id":3,"left_children":[1,3,5,7,-1,9,11,-1,-1,-1,-1,-1,-1],"loss_changes":[3.7986923E2,1.6430133E2,9.7551926E1,1.463736E2,0E0,7.794179E1,5.5330887E0,0E0,0E0,0E0,0E0,0E0,0E0],"parents":[2147483647,0,0,1,1,2,2,3,3,5,5,6,6],"right_children":[2,4,6,8,-1,10,12,-1,-1,-1,-1,-1,-1],"split_conditions":[1.5321986E-3,2.91634E2,2.92733E2,2.8822476E2,-9.144377E-2,2.56262E2,4.5269897E1,-1.732275E-2,4.242269E-2,3.8061175E-2,1.247396E-2,1.3935888E-2,-8.4536724E-2],"split_indices":[4,0,0,1,0,0,6,0,0,0,0,0,0],"split_type":[0,0,0,0,0,0,0,0,0,0,0,0,0],"sum_hessian":[3.325244E3,1.6984319E3,1.6268121E3,1.6292177E3,6.921421E1,1.6020173E3,2.4794838E1,1.5202365E3,1.08981155E2,3.94853E2,1.2071643E3,1.2371951E0,2.3557642E1],"tree_param":{"num_deleted":"0","num_feature":"8","num_nodes":"13","size_leaf_vector":"1"}},{"base_weights":[-1.1994015E-4,-4.2328015E-1,2.4462055E-1,9.304992E-2,-8.572337E-1,2.8098777E-1,-1.326015E0,5.6388505E-2,-4.9545807E-3,7.120608E-3,-4.9396764E-2,2.896016E-3,2.5206754E-2,5.6805476E-3,-8.1794865E-2],"categories":[],"categories_nodes":[],"categories_segments":[],"categories_sizes":[],"default_left":[0,0,0,0,0,0,0,0,0,0,0,0,0,0,0],"id":4,"left_children":[1,3,5,7,9,11,13,-1,-1,-1,-1,-1,-1,-1,-1],"loss_changes":[3.443306E2,2.73059E2,1.2069414E2,1.1090076E2,8.66423E1,1.02493164E2,2.1530441E1,0E0,0E0,0E0,0E0,0E0,0E0,0E0,0E0],"parents":[2147483647,0,0,1,1,2,2,3,3,4,4,5,5,6,6],"right_children":[2,4,6,8,10,12,14,-1,-1,-1,-1,-1,-1,-1,-1],"split_conditions":[1.2624105E-3,2.6795074E2,2.91924E2,2.54408E2,-8.64658E-3,2.6894504E2,4.5269897E1,5.6388505E-2,-4.9545807E-3,7.120608E-3,-4.9396764E-2,2.896016E-3,2.5206754E-2,5.6805476E-3,-8.1794865E-2],"split_indices":[4,1,0,0,2,1,6,0,0,0,0,0,0,0,0],"split_type":[0,0,0,0,0,0,0,0,0,0,0,0,0,0,0],"sum_hessian":[3.3227961E3,1.217313E3,2.1054832E3,5.562531E2,6.610599E2,2.0586375E3,4.6845528E1,8.635342E1,4.6989966E2,7.6427704E1,5.846322E2,1.0301329E3,1.0285046E3,8.409718E0,3.843581E1],"tree_param":{"num_deleted":"0","num_feature":"8","num_nodes":"15","size_leaf_vector":"1"}},{"base_weights":[-1.4503599E-4,-3.0355826E-1,3.161387E-1,6.764596E-1,-3.9223573E-1,7.2108066E-1,1.8577391E-1,5.0235655E-2,-3.0778352E-2,-9.716642E-2,-1.5615358E-2,-8.620207E-4,4.7329925E-2,-1.7013814E-2,1.9307854E-2],"categories":[],"categories_nodes":[],"categories_segments":[],"categories_sizes":[],"default_left":[0,0,0,0,0,0,0,0,0,0,0,0,0,0,0],"id":5,"left_children":[1,3,5,7,9,11,13,-1,-1,-1,-1,-1,-1,-1,-1],"loss_changes":[3.185629E2,1.4750623E2,8.566699E1,6.039814E1,1.9209142E2,6.58642E1,1.2987708E2,0E0,0E0,0E0,0E0,0E0,0E0,0E0,0E0],"parents":[2147483647,0,0,1,1,2,2,3,3,4,4,5,5,6,6],"right_children":[2,4,6,8,10,12,14,-1,-1,-1,-1,-1,-1,-1,-1],"split_conditions":[1.5321986E-3,2.54408E2,2.56262E2,1.3532093E-3,2.5355122E2,-3.1724986E-2,2.6625336E2,5.0235655E-2,-3.0778352E-2,-9.716642E-2,-1.5615358E-2,-8.620207E-4,4.7329925E-2,-1.7013814E-2,1.9307854E-2],"split_indices":[4,0,0,4,1,2,1,0,0,0,0,0,0,0,0],"split_type":[0,0,0,0,0,0,0,0,0,0,0,0,0,0,0],"sum_hessian":[3.317585E3,1.6932645E3,1.6243203E3,1.3995251E2,1.553312E3,3.9447202E2,1.2298483E3,1.1177679E2,2.8175734E1,7.4977936E1,1.4783341E3,9.251416E1,3.0195786E2,3.390552E2,8.907931E2],"tree_param":{"num_deleted":"0","num_feature":"8","num_nodes":"15","size_leaf_vector":"1"}},{"base_weights":[-1.4683219E-4,-3.8893536E-1,2.2404177E-1,1.3621303E-1,-7.7809453E-1,2.5378698E-1,-1.5310571E0,-3.5063174E-2,1.73897E-2,-6.2119182E-2,-2.065151E-2,2.4399671E-3,2.2834605E-2,-8.015334E-2,-4.1477266E-3],"categories":[],"categories_nodes":[],"categories_segments":[],"categories_sizes":[],"default_left":[0,0,0,0,0,0,0,0,0,0,0,0,0,0,0],"id":6,"left_children":[1,3,5,7,9,11,13,-1,-1,-1,-1,-1,-1,-1,-1],"loss_changes":[2.8905054E2,2.4797676E2,1.1019669E2,9.186923E1,1.1758865E2,8.6041E1,3.5371552E0,0E0,0E0,0E0,0E0,0E0,0E0,0E0,0E0],"parents":[2147483647,0,0,1,1,2,2,3,3,4,4,5,5,6,6],"right_children":[2,4,6,8,10,12,14,-1,-1,-1,-1,-1,-1,-1,-1],"split_conditions":[1.2624105E-3,2.64865E2,2.92733E2,2.5355122E2,8.867558E-4,2.6894504E2,9.506947E-3,-3.5063174E-2,1.73897E-2,-6.2119182E-2,-2.065151E-2,2.4399671E-3,2.2834605E-2,-8.015334E-2,-4.1477266E-3],"split_indices":[4,0,0,1,4,1,7,0,0,0,0,0,0,0,0],"split_type":[0,0,0,0,0,0,0,0,0,0,0,0,0,0,0],"sum_hessian":[3.3142466E3,1.2118749E3,2.1023718E3,5.160902E2,6.9578467E2,2.068176E3,3.4195786E1,1.0362175E2,4.1246844E2,3.0521234E2,3.9057236E2,1.0294254E3,1.0387506E3,3.247394E1,1.7218407E0],"tree_param":{"num_deleted":"0","num_feature":"8","num_nodes":"15","size_leaf_vector":"1"}},{"base_weights":[-2.1573718E-4,-2.809651E-1,2.8741297E-1,-2.2149013E-1,-8.402857E-2,6.390783E-1,1.4747754E-1,-1.48246065E-2,4.0684737E-2,-1.40839E-3,4.077279E-2,-2.6460452E-2,1.7734325E-2],"categories":[],"categories_nodes":[],"categories_segments":[],"categories_sizes":[],"default_left":[0,0,0,0,0,0,0,0,0,0,0,0,0],"id":7,"left_children":[1,3,5,7,-1,9,11,-1,-1,-1,-1,-1,-1],"loss_changes":[2.673505E2,1.3909271E2,8.038223E1,1.25109856E2,0E0,5.4771927E1,1.6440051E2,0E0,0E0,0E0,0E0,0E0,0E0],"parents":[2147483647,0,0,1,1,2,2,3,3,5,5,6,6],"right_children":[2,4,6,8,-1,10,12,-1,-1,-1,-1,-1,-1],"split_conditions":[1.5226324E-3,2.91634E2,2.57791E2,2.8822476E2,-8.402857E-2,-2.782045E-2,2.6625336E2,-1.48246065E-2,4.0684737E-2,-1.40839E-3,4.077279E-2,-2.6460452E-2,1.7734325E-2],"split_indices":[4,0,0,1,0,2,1,0,0,0,0,0,0],"split_type":[0,0,0,0,0,0,0,0,0,0,0,0,0],"sum_hessian":[3.3087778E3,1.6744246E3,1.6343533E3,1.6072828E3,6.714173E1,4.6420755E2,1.1701458E3,1.4993633E3,1.0791944E2,9.7228134E1,3.6697943E2,2.7394943E2,8.961963E2],"tree_param":{"num_deleted":"0","num_feature":"8","num_nodes":"13","size_leaf_vector":"1"}},{"base_weights":[-2.2060063E-4,-2.6532695E-1,2.756832E-1,6.629201E-1,-3.4959456E-1,3.024574E-1,-1.4514654E0,4.8921846E-2,-2.8842745E-2,-9.094245E-2,-1.3703279E-2,3.274549E-2,9.34089E-3,1.3329588E-2,-7.7620916E-2],"categories":[],"categories_nodes":[],"categories_segments":[],"categories_sizes":[],"default_left":[0,0,0,0,0,0,0,0,0,0,0,0,0,0,0],"id":8,"left_children":[1,3,5,7,9,11,13,-1,-1,-1,-1,-1,-1,-1,-1],"loss_changes":[2.4185182E2,1.3213269E2,7.536496E1,5.559645E1,1.7112645E2,6.494121E1,4.7336807E0,0E0,0E0,0E0,0E0,0E0,0E0,0E0,0E0],"parents":[2147483647,0,0,1,1,2,2,3,3,4,4,5,5,6,6],"right_children":[2,4,6,8,10,12,14,-1,-1,-1,-1,-1,-1,-1,-1],"split_conditions":[1.5321986E-3,2.54408E2,2.92733E2,1.3532093E-3,2.5355122E2,2.56262E2,4.5269897E1,4.8921846E-2,-2.8842745E-2,-9.094245E-2,-1.3703279E-2,3.274549E-2,9.34089E-3,1.3329588E-2,-7.7620916E-2],"split_indices":[4,0,0,4,1,0,6,0,0,0,0,0,0,0,0],"split_type":[0,0,0,0,0,0,0,0,0,0,0,0,0,0,0],"sum_hessian":[3.304523E3,1.6852567E3,1.6192661E3,1.3968578E2,1.545571E3,1.5953599E3,2.3906319E1,1.1151622E2,2.8169546E1,7.443894E1,1.4711321E3,3.9297293E2,1.2023868E3,1.2357112E0,2.2670607E1],"tree_param":{"num_deleted":"0","num_feature":"8","num_nodes":"15","size_leaf_vector":"1"}},{"base_weights":[-2.4958927E-4,-3.4362453E-1,1.9708316E-1,1.285122E-1,-7.446832E-1,3.7971288E-1,-6.0621463E-2,5.719914E-2,-9.587059E-4,-5.7392906E-2,-2.2452848E-2,5.4301317E-3,3.0473774E-2,5.36679E-2,-1.2781403E-2],"categories":[],"categories_nodes":[],"categories_segments":[],"categories_sizes":[],"default_left":[0,0,0,0,0,0,0,0,0,0,0,0,0,0,0],"id":9,"left_children":[1,3,5,7,9,11,13,-1,-1,-1,-1,-1,-1,-1,-1],"loss_changes":[2.2372289E2,2.2826376E2,9.870605E1,8.315082E1,7.715759E1,7.638115E1,1.9277077E2,0E0,0E0,0E0,0E0,0E0,0E0,0E0,0E0],"parents":[2147483647,0,0,1,1,2,2,3,3,4,4,5,5,6,6],"right_children":[2,4,6,8,10,12,14,-1,-1,-1,-1,-1,-1,-1,-1],"split_conditions":[1.2624105E-3,2.6795074E2,-1.4820551E-4,2.5408E2,8.867558E-4,2.6894504E2,2.54408E2,5.719914E-2,-9.587059E-4,-5.7392906E-2,-2.2452848E-2,5.4301317E-3,3.0473774E-2,5.36679E-2,-1.2781403E-2],"split_indices":[4,1,2,0,4,1,0,0,0,0,0,0,0,0,0],"split_type":[0,0,0,0,0,0,0,0,0,0,0,0,0,0,0],"sum_hessian":[3.2997385E3,1.203978E3,2.0957605E3,5.5329926E2,6.506788E2,1.2262618E3,8.694988E2,6.9395996E1,4.839033E2,2.740486E2,3.7663016E2,5.631918E2,6.6307E2,1.2692356E2,7.425752E2],"tree_param":{"num_deleted":"0","num_feature":"8","num_nodes":"15","size_leaf_vector":"1"}},{"base_weights":[-2.3126147E-4,-3.277886E-1,1.8749745E-1,1.22369975E-1,-7.120497E-1,2.190125E-1,-1.2189304E0,5.490286E-2,-9.109185E-4,9.966485E-3,-4.170538E-2,1.1099795E-3,2.0825446E-2,4.274692E-3,-7.5430386E-2],"categories":[],"categories_nodes":[],"categories_segments":[],"categories_sizes":[],"default_left":[0,0,0,0,0,0,0,0,0,0,0,0,0,0,0],"id":10,"left_children":[1,3,5,7,9,11,13,-1,-1,-1,-1,-1,-1,-1,-1],"loss_changes":[2.0259949E2,2.0771925E2,9.309835E1,7.5960655E1,7.2218414E1,7.964845E1,1.7531296E1,0E0,0E0,0E0,0E0,0E0,0E0,0E0,0E0],"parents":[2147483647,0,0,1,1,2,2,3,3,4,4,5,5,6,6],"right_children":[2,4,6,8,10,12,14,-1,-1,-1,-1,-1,-1,-1,-1],"split_conditions":[1.2624105E-3,2.6795074E2,2.91924E2,2.5408E2,-8.64658E-3,2.6894504E2,4.5269897E1,5.490286E-2,-9.109185E-4,9.966485E-3,-4.170538E-2,1.1099795E-3,2.0825446E-2,4.274692E-3,-7.5430386E-2],"split_indices":[4,1,0,0,2,1,6,0,0,0,0,0,0,0,0],"split_type":[0,0,0,0,0,0,0,0,0,0,0,0,0,0,0],"sum_hessian":[3.2927344E3,1.1993353E3,2.093399E3,5.526234E2,6.467119E2,2.0483442E3,4.505474E1,6.8741936E1,4.8388144E2,7.630749E1,5.704044E2,1.0265046E3,1.02183966E3,8.315352E0,3.673939E1],"tree_param":{"num_deleted":"0","num_feature":"8","num_nodes":"15","size_leaf_vector":"1"}},{"base_weights":[-2.5194744E-4,5.9337634E-1,-9.811231E-2,-1.1689454E-1,7.839767E-1,-8.894081E-2,-4.817927E-2,1.8553806E-2,-6.979167E-2,4.343331E-2,-3.633381E-2,-4.8205835E-5,-6.95133E-2],"categories":[],"categories_nodes":[],"categories_segments":[],"categories_sizes":[],"default_left":[0,0,0,0,0,0,0,0,0,0,0,0,0],"id":11,"left_children":[1,3,5,7,9,-1,11,-1,-1,-1,-1,-1,-1],"loss_changes":[1.9094717E2,6.3065643E1,2.3672443E2,6.248225E1,4.7569046E1,0E0,1.7371118E2,0E0,0E0,0E0,0E0,0E0,0E0],"parents":[2147483647,0,0,1,1,2,2,3,3,4,4,6,6],"right_children":[2,4,6,8,10,-1,12,-1,-1,-1,-1,-1,-1],"split_conditions":[2.54408E2,-3.1724986E-2,2.5355122E2,4.7232075E1,2.5608414E2,-8.894081E-2,2.91924E2,1.8553806E-2,-6.979167E-2,4.343331E-2,-3.633381E-2,-4.8205835E-5,-6.95133E-2],"split_indices":[0,2,1,6,1,0,0,0,0,0,0,0,0],"split_type":[0,0,0,0,0,0,0,0,0,0,0,0,0],"sum_hessian":[3.2849387E3,4.6417212E2,2.8207666E3,9.828827E1,3.6588385E2,8.038691E1,2.7403796E3,7.165763E1,2.663064E1,3.4686316E2,1.9020702E1,2.648215E3,9.216456E1],"tree_param":{"num_deleted":"0","num_feature":"8","num_nodes":"13","size_leaf_vector":"1"}},{"base_weights":[-3.1709232E-4,3.9918542E-1,-1.4298029E-1,2.217432E-2,5.5740774E-1,6.970517E-1,-2.4103211E-1,-2.2047004E-2,1.5391672E-2,4.6865623E-2,1.7502967E-2,4.7433614E-3,5.7904996E-2,-8.558949E-2,-9.212465E-3],"categories":[],"categories_nodes":[],"categories_segments":[],"categories_sizes":[],"default_left":[0,0,0,0,0,0,0,0,0,0,0,0,0,0,0],"id":12,"left_children":[1,3,5,7,9,11,13,-1,-1,-1,-1,-1,-1,-1,-1],"loss_changes":[1.8708376E2,5.151126E1,1.9939275E2,3.4052402E1,4.759459E1,7.015252E1,1.8063226E2,0E0,0E0,0E0,0E0,0E0,0E0,0E0,0E0],"parents":[2147483647,0,0,1,1,2,2,3,3,4,4,5,5,6,6],"right_children":[2,4,6,8,10,12,14,-1,-1,-1,-1,-1,-1,-1,-1],"split_conditions":[-7.11664E-3,-1.9586233E-2,2.54408E2,2.384877E-3,2.6295126E2,2.40893E2,2.5355122E2,-2.2047004E-2,1.5391672E-2,4.6865623E-2,1.7502967E-2,4.7433614E-3,5.7904996E-2,-8.558949E-2,-9.212465E-3],"split_indices":[2,2,0,7,1,0,1,0,0,0,0,0,0,0,0],"split_type":[0,0,0,0,0,0,0,0,0,0,0,0,0,0,0],"sum_hessian":[3.2804978E3,8.6274316E2,2.4177546E3,2.5537569E2,6.073675E2,2.5207368E2,2.165681E3,9.721913E1,1.5815656E2,2.132074E2,3.941601E2,1.0982923E2,1.4224445E2,7.942076E1,2.08626E3],"tree_param":{"num_deleted":"0","num_feature":"8","num_nodes":"15","size_leaf_vector":"1"}},{"base_weights":[-2.9118304E-4,-1.9104184E-1,2.8012207E-1,-1.4451802E-1,-1.4623079E0,6.7414033E-1,1.1394978E-1,-1.1348872E-2,3.6070656E-2,-7.6767944E-2,3.6952023E-3,3.8823653E-2,-2.0938702E-3,1.668155E-2,-2.8680822E-2],"categories":[],"categories_nodes":[],"categories_segments":[],"categories_sizes":[],"default_left":[0,0,0,0,0,0,0,0,0,0,0,0,0,0,0],"id":13,"left_children":[1,3,5,7,9,11,13,-1,-1,-1,-1,-1,-1,-1,-1],"loss_changes":[1.75324E2,1.1516454E2,8.680841E1,1.3461755E2,7.8299103E0,2.8860031E1,1.4135364E2,0E0,0E0,0E0,0E0,0E0,0E0,0E0,0E0],"parents":[2147483647,0,0,1,1,2,2,3,3,4,4,5,5,6,6],"right_children":[2,4,6,8,10,12,14,-1,-1,-1,-1,-1,-1,-1,-1],"split_conditions":[1.7086508E-3,2.91634E2,2.585027E2,2.86218E2,1.5674192E-3,1.1223085E-2,1.7200679E-3,-1.1348872E-2,3.6070656E-2,-7.6767944E-2,3.6952023E-3,3.8823653E-2,-2.0938702E-3,1.668155E-2,-2.8680822E-2],"split_indices":[4,0,1,0,4,2,2,0,0,0,0,0,0,0,0],"split_type":[0,0,0,0,0,0,0,0,0,0,0,0,0,0,0],"sum_hessian":[3.2757568E3,1.9497566E3,1.3260001E3,1.881996E3,6.776069E1,3.924316E2,9.3356854E2,1.7190363E3,1.6295964E2,6.468529E1,3.075402E0,3.4328516E2,4.9146477E1,7.0790405E2,2.2566449E2],"tree_param":{"num_deleted":"0","num_feature":"8","num_nodes":"15","size_leaf_vector":"1"}},{"base_weights":[-2.9049325E-4,-2.197738E-1,2.231637E-1,-1.6938153E-1,-7.453565E-2,2.4556527E-1,-1.3131896E0,-1.1810308E-2,3.7355524E-2,1.6154818E-2,-8.772514E-3,1.3966742E-2,-7.070648E-2],"categories":[],"categories_nodes":[],"categories_segments":[],"categories_sizes":[],"default_left":[0,0,0,0,0,0,0,0,0,0,0,0,0],"id":14,"left_children":[1,3,5,7,-1,9,11,-1,-1,-1,-1,-1,-1],"loss_changes":[1.6050555E2,1.0548634E2,5.613463E1,9.750331E1,0E0,5.2257263E1,4.1666946E0,0E0,0E0,0E0,0E0,0E0,0E0],"parents":[2147483647,0,0,1,1,2,2,3,3,5,5,6,6],"right_children":[2,4,6,8,-1,10,12,-1,-1,-1,-1,-1,-1],"split_conditions":[1.5226324E-3,2.91634E2,2.92733E2,2.8822476E2,-7.453565E-2,7.664861E-3,4.5269897E1,-1.1810308E-2,3.7355524E-2,1.6154818E-2,-8.772514E-3,1.3966742E-2,-7.070648E-2],"split_indices":[4,0,0,1,0,2,6,0,0,0,0,0,0],"split_type":[0,0,0,0,0,0,0,0,0,0,0,0,0],"sum_hessian":[3.2706538E3,1.6499957E3,1.6206581E3,1.5881592E3,6.183663E1,1.598195E3,2.2463116E1,1.4809222E3,1.0723694E2,1.3498494E3,2.4834563E2,1.2335832E0,2.1229532E1],"tree_param":{"num_deleted":"0","num_feature":"8","num_nodes":"13","size_leaf_vector":"1"}},{"base_weights":[-3.2546956E-4,3.5784397E-1,-1.2825616E-1,-3.4740608E-4,5.0859594E-1,6.56364E-1,-2.1959518E-1,-2.150163E-2,1.328782E-2,4.380409E-2,1.5434816E-2,4.0965904E-3,5.5018187E-2,-8.191827E-2,-8.283868E-3],"categories":[],"categories_nodes":[],"categories_segments":[],"categories_sizes":[],"default_left":[0,0,0,0,0,0,0,0,0,0,0,0,0,0,0],"id":15,"left_children":[1,3,5,7,9,11,13,-1,-1,-1,-1,-1,-1,-1,-1],"loss_changes":[1.4968733E2,4.642486E1,1.7264847E2,2.9346844E1,4.417935E1,6.3988266E1,1.6471756E2,0E0,0E0,0E0,0E0,0E0,0E0,0E0,0E0],"parents":[2147483647,0,0,1,1,2,2,3,3,4,4,5,5,6,6],"right_children":[2,4,6,8,10,12,14,-1,-1,-1,-1,-1,-1,-1,-1],"split_conditions":[-7.11664E-3,-1.9586233E-2,2.54408E2,2.384877E-3,2.6295126E2,2.40893E2,2.5355122E2,-2.150163E-2,1.328782E-2,4.380409E-2,1.5434816E-2,4.0965904E-3,5.5018187E-2,-8.191827E-2,-8.283868E-3],"split_indices":[2,2,0,7,1,0,1,0,0,0,0,0,0,0,0],"split_type":[0,0,0,0,0,0,0,0,0,0,0,0,0,0,0],"sum_hessian":[3.2647925E3,8.587475E2,2.4060452E3,2.5466153E2,6.04086E2,2.5024083E2,2.1558042E3,9.715944E1,1.5750209E2,2.1163808E2,3.924479E2,1.0961242E2,1.406284E2,7.785204E1,2.0779521E3],"tree_param":{"num_deleted":"0","num_feature":"8","num_nodes":"15","size_leaf_vector":"1"}},{"base_weights":[-3.0115418E-4,3.4811452E-2,-1.2731366E0,-1.3194723E-1,2.7782404E-1,-5.358332E-1,-7.219118E-2,-9.236089E-3,4.3196727E-2,3.0928362E-2,6.51991E-3,1.8822262E-2,-7.642179E-2],"categories":[],"categories_nodes":[],"categories_segments":[],"categories_sizes":[],"default_left":[0,0,0,0,0,0,0,0,0,0,0,0,0],"id":16,"left_children":[1,3,5,7,9,11,-1,-1,-1,-1,-1,-1,-1],"loss_changes":[1.4575296E2,1.2864886E2,1.0244293E1,9.9115295E1,6.4815796E1,1.6918375E1,0E0,0E0,0E0,0E0,0E0,0E0,0E0],"parents":[2147483647,0,0,1,1,2,2,3,3,4,4,5,5],"right_children":[2,4,6,8,10,12,-1,-1,-1,-1,-1,-1,-1],"split_conditions":[2.91924E2,1.7086508E-3,7.2359433E-4,2.0722961E-2,2.585027E2,2.9277393E2,-7.219118E-2,-9.236089E-3,4.3196727E-2,3.0928362E-2,6.51991E-3,1.8822262E-2,-7.642179E-2],"split_indices":[0,4,2,2,1,1,0,0,0,0,0,0,0],"split_type":[0,0,0,0,0,0,0,0,0,0,0,0,0],"sum_hessian":[3.2592432E3,3.1726934E3,8.654968E1,1.8818193E3,1.290874E3,1.7047998E1,6.9501686E1,1.7878887E3,9.3930664E1,3.888756E2,9.019985E2,9.206898E0,7.8411E0],"tree_param":{"num_deleted":"0","num_feature":"8","num_nodes":"13","size_leaf_vector":"1"}},{"base_weights":[-3.2193717E-4,3.3127174E-2,-1.2402265E0,-3.4547114E-1,1.3284507E-1,-5.1549816E-1,-7.058541E-2,1.3344625E-2,-4.3669328E-2,4.869887E-3,5.1247835E-2,1.7939271E-2,-7.409736E-2],"categories":[],"categories_nodes":[],"categories_segments":[],"categories_sizes":[],"default_left":[0,0,0,0,0,0,0,0,0,0,0,0,0],"id":17,"left_children":[1,3,5,7,9,11,-1,-1,-1,-1,-1,-1,-1],"loss_changes":[1.3505788E2,1.1975837E2,9.903305E0,2.1403018E2,7.929257E1,1.5692646E1,0E0,0E0,0E0,0E0,0E0,0E0,0E0],"parents":[2147483647,0,0,1,1,2,2,3,3,4,4,5,5],"right_children":[2,4,6,8,10,12,-1,-1,-1,-1,-1,-1,-1],"split_conditions":[2.91924E2,9.7615033E-4,7.2359433E-4,2.64865E2,2.9134293E2,2.9277393E2,-7.058541E-2,1.3344625E-2,-4.3669328E-2,4.869887E-3,5.1247835E-2,1.7939271E-2,-7.409736E-2],"split_indices":[0,4,2,0,1,1,0,0,0,0,0,0,0],"split_type":[0,0,0,0,0,0,0,0,0,0,0,0,0],"sum_hessian":[3.2544795E3,3.1699368E3,8.454263E1,6.60345E2,2.509592E3,1.6942999E1,6.759963E1,3.0594907E2,3.543959E2,2.414753E3,9.483907E1,9.225787E0,7.7172117E0],"tree_param":{"num_deleted":"0","num_feature":"8","num_nodes":"13","size_leaf_vector":"1"}},{"base_weights":[-3.7752505E-4,3.3058038E-1,-1.18765205E-1,-1.1491138E-2,4.7501817E-1,6.131517E-1,-2.0358637E-1,-1.5338714E-2,1.7778812E-2,4.1210722E-2,1.4295827E-2,-2.1028442E-3,4.8809282E-2,-7.966303E-2,-7.57104E-3],"categories":[],"categories_nodes":[],"categories_segments":[],"categories_sizes":[],"default_left":[0,0,0,0,0,0,0,0,0,0,0,0,0,0,0],"id":18,"left_children":[1,3,5,7,9,11,13,-1,-1,-1,-1,-1,-1,-1,-1],"loss_changes":[1.2733721E2,4.2311264E1,1.4873003E2,2.7768383E1,3.9520996E1,5.923146E1,1.55318E2,0E0,0E0,0E0,0E0,0E0,0E0,0E0,0E0],"parents":[2147483647,0,0,1,1,2,2,3,3,4,4,5,5,6,6],"right_children":[2,4,6,8,10,12,14,-1,-1,-1,-1,-1,-1,-1,-1],"split_conditions":[-7.11664E-3,-1.9586233E-2,2.54408E2,2.68361E2,2.6295126E2,5.111635E1,2.5355122E2,-1.5338714E-2,1.7778812E-2,4.1210722E-2,1.4295827E-2,-2.1028442E-3,4.8809282E-2,-7.966303E-2,-7.57104E-3],"split_indices":[2,2,0,1,1,6,1,0,0,0,0,0,0,0,0],"split_type":[0,0,0,0,0,0,0,0,0,0,0,0,0,0,0],"sum_hessian":[3.2479434E3,8.552533E2,2.3926902E3,2.5418596E2,6.010673E2,2.4784253E2,2.1448477E3,1.409581E2,1.1322787E2,2.0997238E2,3.9109497E2,8.86785E1,1.5916403E2,7.6531456E1,2.0683162E3],"tree_param":{"num_deleted":"0","num_feature":"8","num_nodes":"15","size_leaf_vector":"1"}},{"base_weights":[-3.5276232E-4,3.1389255E-2,-1.2056959E0,-1.203614E-1,2.5258124E-1,-4.8989493E-1,-6.8967044E-2,-9.578549E-3,2.9887116E-2,2.8649831E-2,5.7435534E-3,1.745457E-2,-7.175903E-2],"categories":[],"categories_nodes":[],"categories_segments":[],"categories_sizes":[],"default_left":[0,0,0,0,0,0,0,0,0,0,0,0,0],"id":19,"left_children":[1,3,5,7,9,11,-1,-1,-1,-1,-1,-1,-1],"loss_changes":[1.2412269E2,1.06131165E2,9.670807E0,9.601668E1,5.6701096E1,1.4619387E1,0E0,0E0,0E0,0E0,0E0,0E0,0E0],"parents":[2147483647,0,0,1,1,2,2,3,3,4,4,5,5],"right_children":[2,4,6,8,10,12,-1,-1,-1,-1,-1,-1,-1],"split_conditions":[2.91924E2,1.7086508E-3,7.2359433E-4,2.86218E2,2.585027E2,2.9277393E2,-6.8967044E-2,-9.578549E-3,2.9887116E-2,2.8649831E-2,5.7435534E-3,1.745457E-2,-7.175903E-2],"split_indices":[0,4,2,0,1,1,0,0,0,0,0,0,0],"split_type":[0,0,0,0,0,0,0,0,0,0,0,0,0],"sum_hessian":[3.2421982E3,3.1599565E3,8.2241684E1,1.8744381E3,1.2855186E3,1.6801922E1,6.5439766E1,1.7059988E3,1.6843936E2,3.854701E2,9.0004846E2,9.235593E0,7.5663295E0],"tree_param":{"num_deleted":"0","num_feature":"8","num_nodes":"13","size_leaf_vector":"1"}},{"base_weights":[-3.722388E-4,2.9878465E-2,-1.1776152E0,-3.1530672E-1,1.2028523E-1,-4.722419E-1,-6.763521E-2,1.36978105E-2,-4.141383E-2,4.345961E-3,4.828672E-2,1.6641168E-2,-6.981962E-2],"categories":[],"categories_nodes":[],"categories_segments":[],"categories_sizes":[],"default_left":[0,0,0,0,0,0,0,0,0,0,0,0,0],"id":20,"left_children":[1,3,5,7,9,11,-1,-1,-1,-1,-1,-1,-1],"loss_changes":[1.15330414E2,9.857012E1,9.381264E0,1.9839337E2,7.05177E1,1.3611489E1,0E0,0E0,0E0,0E0,0E0,0E0,0E0],"parents":[2147483647,0,0,1,1,2,2,3,3,4,4,5,5],"right_children":[2,4,6,8,10,12,-1,-1,-1,-1,-1,-1,-1],"split_conditions":[2.91924E2,9.7615033E-4,7.2359433E-4,2.64865E2,2.9134293E2,2.9277393E2,-6.763521E-2,1.36978105E-2,-4.141383E-2,4.345961E-3,4.828672E-2,1.6641168E-2,-6.981962E-2],"split_indices":[0,4,2,0,1,1,0,0,0,0,0,0,0],"split_type":[0,0,0,0,0,0,0,0,0,0,0,0,0],"sum_hessian":[3.2364998E3,3.1563677E3,8.0132126E1,6.5458527E2,2.5017822E3,1.6670313E1,6.346181E1,3.0485532E2,3.4972995E2,2.407858E3,9.3924324E1,9.251133E0,7.4191804E0],"tree_param":{"num_deleted":"0","num_feature":"8","num_nodes":"13","size_leaf_vector":"1"}},{"base_weights":[-4.234849E-4,2.8417388E-2,-1.1513999E0,-1.12684734E-1,2.3410536E-1,-4.5559582E-1,-6.6410504E-2,-8.147702E-3,4.144428E-2,2.714543E-2,5.0923494E-3,5.3768504E-2,-4.5262035E-2],"categories":[],"categories_nodes":[],"categories_segments":[],"categories_sizes":[],"default_left":[0,0,0,0,0,0,0,0,0,0,0,0,0],"id":21,"left_children":[1,3,5,7,9,11,-1,-1,-1,-1,-1,-1,-1],"loss_changes":[1.0727518E2,9.152626E1,9.113678E0,8.867365E1,5.2348175E1,1.30401745E1,0E0,0E0,0E0,0E0,0E0,0E0,0E0],"parents":[2147483647,0,0,1,1,2,2,3,3,4,4,5,5],"right_children":[2,4,6,8,10,12,-1,-1,-1,-1,-1,-1,-1],"split_conditions":[2.91924E2,1.7086508E-3,7.2359433E-4,2.0722961E-2,2.585027E2,2.9238528E2,-6.6410504E-2,-8.147702E-3,4.144428E-2,2.714543E-2,5.0923494E-3,5.3768504E-2,-4.5262035E-2],"split_indices":[0,4,2,2,1,1,0,0,0,0,0,0,0],"split_type":[0,0,0,0,0,0,0,0,0,0,0,0,0],"sum_hessian":[3.2296653E3,3.1516667E3,7.799836E1,1.8695833E3,1.2820836E3,1.6528854E1,6.14695E1,1.7756124E3,9.397086E1,3.835193E2,8.9856433E2,3.4365108E0,1.3092344E1],"tree_param":{"num_deleted":"0","num_feature":"8","num_nodes":"13","size_leaf_vector":"1"}},{"base_weights":[-4.1665632E-4,3.0060568E-1,-1.0834064E-1,-2.5734633E-2,4.3905088E-1,5.6615406E-1,-1.8612392E-1,-1.5847875E-2,1.6833028E-2,3.854353E-2,1.303069E-2,1.3216793E-3,4.9603682E-2,-7.745736E-2,-6.7847567E-3],"categories":[],"categories_nodes":[],"categories_segments":[],"categories_sizes":[],"default_left":[0,0,0,0,0,0,0,0,0,0,0,0,0,0,0],"id":22,"left_children":[1,3,5,7,9,11,13,-1,-1,-1,-1,-1,-1,-1,-1],"loss_changes":[1.0482183E2,3.8482468E1,1.2470928E2,2.6974655E1,3.5201492E1,5.648162E1,1.4621043E2,0E0,0E0,0E0,0E0,0E0,0E0,0E0,0E0],"parents":[2147483647,0,0,1,1,2,2,3,3,4,4,5,5,6,6],"right_children":[2,4,6,8,10,12,14,-1,-1,-1,-1,-1,-1,-1,-1],"split_conditions":[-7.11664E-3,-1.9586233E-2,2.54408E2,2.68361E2,2.6295126E2,2.40893E2,2.5355122E2,-1.5847875E-2,1.6833028E-2,3.854353E-2,1.303069E-2,1.3216793E-3,4.9603682E-2,-7.745736E-2,-6.7847567E-3],"split_indices":[2,2,0,1,1,0,1,0,0,0,0,0,0,0,0],"split_type":[0,0,0,0,0,0,0,0,0,0,0,0,0,0,0],"sum_hessian":[3.2245225E3,8.5050433E2,2.374018E3,2.5358134E2,5.96923E2,2.4481712E2,2.129201E3,1.406664E2,1.1291495E2,2.0758327E2,3.893397E2,1.0845113E2,1.3636598E2,7.490476E1,2.0542961E3],"tree_param":{"num_deleted":"0","num_feature":"8","num_nodes":"15","size_leaf_vector":"1"}},{"base_weights":[-3.8837548E-4,2.6966427E-2,-1.1227514E0,-2.9076782E-1,1.0965913E-1,-4.3056154E-1,-6.516964E-2,1.3539055E-2,-3.922469E-2,-2.919867E-3,1.3832512E-2,1.66447E-2,-6.675117E-2],"categories":[],"categories_nodes":[],"categories_segments":[],"categories_sizes":[],"default_left":[0,0,0,0,0,0,0,0,0,0,0,0,0],"id":23,"left_children":[1,3,5,7,9,11,-1,-1,-1,-1,-1,-1,-1],"loss_changes":[9.886919E1,8.262984E1,9.019096E0,1.8028128E2,7.004126E1,1.242514E1,0E0,0E0,0E0,0E0,0E0,0E0,0E0],"parents":[2147483647,0,0,1,1,2,2,3,3,4,4,5,5],"right_children":[2,4,6,8,10,12,-1,-1,-1,-1,-1,-1,-1],"split_conditions":[2.91924E2,9.7615033E-4,7.2359433E-4,2.64865E2,2.6894504E2,2.9277393E2,-6.516964E-2,1.3539055E-2,-3.922469E-2,-2.919867E-3,1.3832512E-2,1.66447E-2,-6.675117E-2],"split_indices":[0,4,2,0,1,1,0,0,0,0,0,0,0],"split_type":[0,0,0,0,0,0,0,0,0,0,0,0,0],"sum_hessian":[3.2182969E3,3.142678E3,7.561897E1,6.48479E2,2.494199E3,1.635038E1,5.9268597E1,3.0361176E2,3.4486725E2,1.2434581E3,1.2507408E3,9.209006E0,7.141373E0],"tree_param":{"num_deleted":"0","num_feature":"8","num_nodes":"13","size_leaf_vector":"1"}},{"base_weights":[-4.518687E-4,2.9521096E-1,-9.749776E-2,-2.7910072E-2,4.4671193E-1,5.4244953E-1,-1.7366557E-1,-2.225687E-2,1.0661089E-2,3.9382417E-2,1.3237344E-2,1.7281823E-3,4.750412E-2,-7.546716E-2,-6.303776E-3],"categories":[],"categories_nodes":[],"categories_segments":[],"categories_sizes":[],"default_left":[0,0,0,0,0,0,0,0,0,0,0,0,0,0,0],"id":24,"left_children":[1,3,5,7,9,11,13,-1,-1,-1,-1,-1,-1,-1,-1],"loss_changes":[9.221046E1,3.8889572E1,1.1803051E2,2.5693586E1,3.3337334E1,5.329635E1,1.3729718E2,0E0,0E0,0E0,0E0,0E0,0E0,0E0,0E0],"parents":[2147483647,0,0,1,1,2,2,3,3,4,4,5,5,6,6],"right_children":[2,4,6,8,10,12,14,-1,-1,-1,-1,-1,-1,-1,-1],"split_conditions":[-7.961027E-3,-1.9586233E-2,2.54408E2,2.3185303E-3,2.6295126E2,2.40893E2,2.5355122E2,-2.225687E-2,1.0661089E-2,3.9382417E-2,1.3237344E-2,1.7281823E-3,4.750412E-2,-7.546716E-2,-6.303776E-3],"split_indices":[2,2,0,7,1,0,1,0,0,0,0,0,0,0,0],"split_type":[0,0,0,0,0,0,0,0,0,0,0,0,0,0,0],"sum_hessian":[3.211704E3,7.931694E2,2.418535E3,2.5344281E2,5.3972656E2,2.5659033E2,2.1619446E3,9.251656E1,1.6092624E2,1.8666173E2,3.5306485E2,1.1472932E2,1.4186101E2,7.332295E1,2.0886216E3],"tree_param":{"num_deleted":"0","num_feature":"8","num_nodes":"15","size_leaf_vector":"1"}},{"base_weights":[-4.2543732E-4,2.5561487E-2,-1.0966853E0,-4.7093728E-3,8.438011E-1,-4.1045237E-1,-6.403673E-2,4.6354285E-3,-2.6086116E-2,-6.267512E-2,6.452545E-2,5.1648207E-2,-4.2273503E-2],"categories":[],"categories_nodes":[],"categories_segments":[],"categories_sizes":[],"default_left":[0,0,0,0,0,0,0,0,0,0,0,0,0],"id":25,"left_children":[1,3,5,7,9,11,-1,-1,-1,-1,-1,-1,-1],"loss_changes":[9.1366875E1,7.76024E1,8.854095E0,1.5226227E2,1.0633576E2,1.1659264E1,0E0,0E0,0E0,0E0,0E0,0E0,0E0],"parents":[2147483647,0,0,1,1,2,2,3,3,4,4,5,5],"right_children":[2,4,6,8,10,12,-1,-1,-1,-1,-1,-1,-1],"split_conditions":[2.91924E2,2.0722961E-2,7.2359433E-4,9.251801E-3,2.557159E2,2.9238528E2,-6.403673E-2,4.6354285E-3,-2.6086116E-2,-6.267512E-2,6.452545E-2,5.1648207E-2,-4.2273503E-2],"split_indices":[0,2,2,2,1,1,0,0,0,0,0,0,0],"split_type":[0,0,0,0,0,0,0,0,0,0,0,0,0],"sum_hessian":[3.2051738E3,3.1319084E3,7.326545E1,3.0211355E3,1.1077299E2,1.6177456E1,5.7087994E1,2.5428254E3,4.783101E2,1.913371E1,9.1639275E1,3.4281385E0,1.2749318E1],"tree_param":{"num_deleted":"0","num_feature":"8","num_nodes":"13","size_leaf_vector":"1"}},{"base_weights":[-4.539022E-4,2.4286216E-2,-1.0743562E0,4.2232758E-1,-3.449702E-2,-3.9333546E-1,-6.308316E-2,8.230685E-3,4.5795426E-2,-6.7260735E-2,2.9485833E-4,1.6583582E-2,-6.408226E-2],"categories":[],"categories_nodes":[],"categories_segments":[],"categories_sizes":[],"default_left":[0,0,0,0,0,0,0,0,0,0,0,0,0],"id":26,"left_children":[1,3,5,7,9,11,-1,-1,-1,-1,-1,-1,-1],"loss_changes":[8.510237E1,7.32747E1,8.704735E0,5.1107925E1,1.4449861E2,1.138153E1,0E0,0E0,0E0,0E0,0E0,0E0,0E0],"parents":[2147483647,0,0,1,1,2,2,3,3,4,4,5,5],"right_children":[2,4,6,8,10,12,-1,-1,-1,-1,-1,-1,-1],"split_conditions":[2.91924E2,2.539E2,7.2359433E-4,7.2359433E-4,2.5355122E2,2.9277393E2,-6.308316E-2,8.230685E-3,4.5795426E-2,-6.7260735E-2,2.9485833E-4,1.6583582E-2,-6.408226E-2],"split_indices":[0,0,2,2,1,1,0,0,0,0,0,0,0],"split_type":[0,0,0,0,0,0,0,0,0,0,0,0,0],"sum_hessian":[3.2011516E3,3.130021E3,7.1130745E1,4.0196875E2,2.7280522E3,1.6012299E1,5.5118446E1,2.6495898E2,1.3700978E2,8.0594826E1,2.6474575E3,9.1615715E0,6.850727E0],"tree_param":{"num_deleted":"0","num_feature":"8","num_nodes":"13","size_leaf_vector":"1"}},{"base_weights":[-4.9691444E-4,2.7475816E-1,-9.1021694E-2,-3.495512E-2,4.2048043E-1,4.884075E-1,-1.6246372E-1,-1.544856E-2,1.5369817E-2,3.7359588E-2,1.236229E-2,-3.3653681E-3,4.209951E-2,-1.0731156E-2,4.0335797E-2],"categories":[],"categories_nodes":[],"categories_segments":[],"categories_sizes":[],"default_left":[0,0,0,0,0,0,0,0,0,0,0,0,0,0,0],"id":27,"left_children":[1,3,5,7,9,11,13,-1,-1,-1,-1,-1,-1,-1,-1],"loss_changes":[7.967389E1,3.572939E1,9.9684586E1,2.3934036E1,3.0277016E1,5.200123E1,1.0849657E2,0E0,0E0,0E0,0E0,0E0,0E0,0E0,0E0],"parents":[2147483647,0,0,1,1,2,2,3,3,4,4,5,5,6,6],"right_children":[2,4,6,8,10,12,14,-1,-1,-1,-1,-1,-1,-1,-1],"split_conditions":[-7.961027E-3,-1.9586233E-2,2.54582E2,2.68361E2,2.6295126E2,5.111635E1,2.0722961E-2,-1.544856E-2,1.5369817E-2,3.7359588E-2,1.236229E-2,-3.3653681E-3,4.209951E-2,-1.0731156E-2,4.0335797E-2],"split_indices":[2,2,0,1,1,6,2,0,0,0,0,0,0,0,0],"split_type":[0,0,0,0,0,0,0,0,0,0,0,0,0,0,0],"sum_hessian":[3.195516E3,7.903365E2,2.4051797E3,2.5312122E2,5.372153E2,2.6336078E2,2.1418188E3,1.4064627E2,1.12474945E2,1.8500066E2,3.522146E2,1.0272334E2,1.6063742E2,2.0331757E3,1.08643105E2],"tree_param":{"num_deleted":"0","num_feature":"8","num_nodes":"15","size_leaf_vector":"1"}},{"base_weights":[-4.168349E-4,2.2977056E-2,-1.0489204E0,-3.987021E-3,8.922508E-1,-3.710702E-1,-6.205597E-2,1.6545108E-2,-3.706107E-3,6.0892243E-2,-1.7635396E-2,1.6312253E-2,-6.2460344E-2],"categories":[],"categories_nodes":[],"categories_segments":[],"categories_sizes":[],"default_left":[0,0,0,0,0,0,0,0,0,0,0,0,0],"id":28,"left_children":[1,3,5,7,9,11,-1,-1,-1,-1,-1,-1,-1],"loss_changes":[7.82986E1,7.319206E1,8.615906E0,7.1180824E1,3.8511116E1,1.0704914E1,0E0,0E0,0E0,0E0,0E0,0E0,0E0],"parents":[2147483647,0,0,1,1,2,2,3,3,4,4,5,5],"right_children":[2,4,6,8,10,12,-1,-1,-1,-1,-1,-1,-1],"split_conditions":[2.91924E2,2.9134293E2,7.2359433E-4,2.553122E2,2.587015E-3,2.9277393E2,-6.205597E-2,1.6545108E-2,-3.706107E-3,6.0892243E-2,-1.7635396E-2,1.6312253E-2,-6.2460344E-2],"split_indices":[0,1,2,1,4,1,0,0,0,0,0,0,0],"split_type":[0,0,0,0,0,0,0,0,0,0,0,0,0],"sum_hessian":[3.1901553E3,3.1214878E3,6.8667595E1,3.0285405E3,9.294715E1,1.5816471E1,5.285112E1,5.237866E2,2.504754E3,7.369538E1,1.925177E1,9.166205E0,6.650266E0],"tree_param":{"num_deleted":"0","num_feature":"8","num_nodes":"13","size_leaf_vector":"1"}},{"base_weights":[-4.226476E-4,-1.5270764E-1,1.5316564E-1,-1.9972979E-1,6.9075525E-1,2.213149E-1,-2.1593569E-1,1.7688837E-2,-1.583242E-2,-6.3897595E-2,5.703584E-2,6.98086E-2,9.442303E-3,-2.1338044E-2,3.89763E-2],"categories":[],"categories_nodes":[],"categories_segments":[],"categories_sizes":[],"default_left":[0,0,0,0,0,0,0,0,0,0,0,0,0,0,0],"id":29,"left_children":[1,3,5,7,9,11,13,-1,-1,-1,-1,-1,-1,-1,-1],"loss_changes":[7.4574486E1,6.3635914E1,3.997767E1,9.830017E1,7.654643E1,5.087133E1,5.2362984E1,0E0,0E0,0E0,0E0,0E0,0E0,0E0,0E0],"parents":[2147483647,0,0,1,1,2,2,3,3,4,4,5,5,6,6],"right_children":[2,4,6,8,10,12,14,-1,-1,-1,-1,-1,-1,-1,-1],"split_conditions":[1.5226324E-3,2.0722961E-2,7.664861E-3,2.553122E2,2.557159E2,2.3489075E2,1.759046E-2,1.7688837E-2,-1.583242E-2,-6.3897595E-2,5.703584E-2,6.98086E-2,9.442303E-3,-2.1338044E-2,3.89763E-2],"split_indices":[4,2,2,1,1,1,2,0,0,0,0,0,0,0,0],"split_type":[0,0,0,0,0,0,0,0,0,0,0,0,0,0,0],"sum_hessian":[3.1864167E3,1.5999996E3,1.586417E3,1.5162345E3,8.376524E1,1.3394982E3,2.469188E2,2.6407E2,1.2521644E3,1.5241092E1,6.8524155E1,3.4893856E1,1.3046044E3,2.0423575E2,4.268304E1],"tree_param":{"num_deleted":"0","num_feature":"8","num_nodes":"15","size_leaf_vector":"1"}},{"base_weights":[-3.6967394E-4,2.1810252E-2,-1.0276283E0,-3.7421326E-3,8.5251206E-1,-3.6176923E-1,-6.1121225E-2,-1.6013727E-3,3.698611E-2,5.851574E-2,-1.7217746E-2,1.55763E-2,-6.1312843E-2],"categories":[],"categories_nodes":[],"categories_segments":[],"categories_sizes":[],"default_left":[0,0,0,0,0,0,0,0,0,0,0,0,0],"id":30,"left_children":[1,3,5,7,9,11,-1,-1,-1,-1,-1,-1,-1],"loss_changes":[7.253143E1,6.614682E1,8.2845E0,6.3617977E1,3.577536E1,1.007222E1,0E0,0E0,0E0,0E0,0E0,0E0,0E0],"parents":[2147483647,0,0,1,1,2,2,3,3,4,4,5,5],"right_children":[2,4,6,8,10,12,-1,-1,-1,-1,-1,-1,-1],"split_conditions":[2.91924E2,2.9134293E2,7.2359433E-4,2.0722961E-2,2.587015E-3,2.9277393E2,-6.1121225E-2,-1.6013727E-3,3.698611E-2,5.851574E-2,-1.7217746E-2,1.55763E-2,-6.1312843E-2],"split_indices":[0,1,2,2,4,1,0,0,0,0,0,0,0],"split_type":[0,0,0,0,0,0,0,0,0,0,0,0,0],"sum_hessian":[3.1813806E3,3.1151E3,6.6280525E1,3.023105E3,9.19952E1,1.564826E1,5.0632267E1,2.9132273E3,1.0987767E2,7.271062E1,1.928458E1,9.1564865E0,6.491773E0],"tree_param":{"num_deleted":"0","num_feature":"8","num_nodes":"13","size_leaf_vector":"1"}},{"base_weights":[-3.7098827E-4,-2.905594E-1,7.535454E-2,2.5962716E-1,-7.5315255E-1,-7.204853E-2,2.1597776E-1,-4.9412064E-2,2.3600122E-2,4.1316234E-2,-4.1735496E-2,5.901841E-3,-3.2231193E-2,5.049873E-2,5.706458E-3],"categories":[],"categories_nodes":[],"categories_segments":[],"categories_sizes":[],"default_left":[0,0,0,0,0,0,0,0,0,0,0,0,0,0,0],"id":31,"left_children":[1,3,5,7,9,11,13,-1,-1,-1,-1,-1,-1,-1,-1],"loss_changes":[6.988711E1,1.6770792E2,5.229608E1,8.03335E1,4.6781204E1,1.3418167E2,1.0428673E2,0E0,0E0,0E0,0E0,0E0,0E0,0E0,0E0],"parents":[2147483647,0,0,1,1,2,2,3,3,4,4,5,5,6,6],"right_children":[2,4,6,8,10,12,14,-1,-1,-1,-1,-1,-1,-1,-1],"split_conditions":[9.7615033E-4,2.64865E2,2.6894504E2,2.5355122E2,-8.989844E-3,2.61057E2,2.695883E2,-4.9412064E-2,2.3600122E-2,4.1316234E-2,-4.1735496E-2,5.901841E-3,-3.2231193E-2,5.049873E-2,5.706458E-3],"split_indices":[4,0,1,1,2,0,1,0,0,0,0,0,0,0,0],"split_type":[0,0,0,0,0,0,0,0,0,0,0,0,0,0,0],"sum_hessian":[3.1783513E3,6.571695E2,2.521182E3,3.0036646E2,3.5680304E2,1.2311559E3,1.2900259E3,4.315344E1,2.57213E2,1.7070765E1,3.3973227E2,9.2489886E2,3.0625702E2,1.4564925E2,1.1443766E3],"tree_param":{"num_deleted":"0","num_feature":"8","num_nodes":"15","size_leaf_vector":"1"}},{"base_weights":[-3.8206318E-4,2.0622684E-2,-1.0066563E0,-1.9600699E-2,5.004296E-1,-3.5123405E-1,-6.024636E-2,6.4980943E-4,-1.0885902E-1,3.523694E-2,-3.4084547E-2,4.817284E-2,-3.8296785E-2],"categories":[],"categories_nodes":[],"categories_segments":[],"categories_sizes":[],"default_left":[0,0,0,0,0,0,0,0,0,0,0,0,0],"id":32,"left_children":[1,3,5,7,9,11,-1,-1,-1,-1,-1,-1,-1],"loss_changes":[6.706751E1,5.999637E1,8.007957E0,2.0178845E2,5.8553734E1,9.722777E0,0E0,0E0,0E0,0E0,0E0,0E0,0E0],"parents":[2147483647,0,0,1,1,2,2,3,3,4,4,5,5],"right_children":[2,4,6,8,10,12,-1,-1,-1,-1,-1,-1,-1],"split_conditions":[2.91924E2,2.8837802E2,7.2359433E-4,2.8698438E2,-2.6437382E-3,2.9238528E2,-6.024636E-2,6.4980943E-4,-1.0885902E-1,3.523694E-2,-3.4084547E-2,4.817284E-2,-3.8296785E-2],"split_indices":[0,1,2,1,2,1,0,0,0,0,0,0,0],"split_type":[0,0,0,0,0,0,0,0,0,0,0,0,0],"sum_hessian":[3.171079E3,3.1071995E3,6.3879498E1,2.8677483E3,2.394512E2,1.5479748E1,4.839975E1,2.8260461E3,4.170216E1,2.0450916E2,3.494206E1,3.3946729E0,1.2085074E1],"tree_param":{"num_deleted":"0","num_feature":"8","num_nodes":"13","size_leaf_vector":"1"}},{"base_weights":[-4.1762073E-4,2.4790536E-1,-8.221181E-2,-3.996991E-2,3.8437545E-1,4.405358E-1,-1.4627028E-1,-2.0729074E-2,9.702847E-3,3.5250347E-2,1.0754767E-2,-3.1833686E-3,4.118401E-2,-7.154184E-2,-5.2463925E-3],"categories":[],"categories_nodes":[],"categories_segments":[],"categories_sizes":[],"default_left":[0,0,0,0,0,0,0,0,0,0,0,0,0,0,0],"id":33,"left_children":[1,3,5,7,9,11,13,-1,-1,-1,-1,-1,-1,-1,-1],"loss_changes":[6.438875E1,3.087331E1,7.991672E1,2.2305597E1,2.8775047E1,5.03891E1,1.1270521E2,0E0,0E0,0E0,0E0,0E0,0E0,0E0,0E0],"parents":[2147483647,0,0,1,1,2,2,3,3,4,4,5,5,6,6],"right_children":[2,4,6,8,10,12,14,-1,-1,-1,-1,-1,-1,-1,-1],"split_conditions":[-7.961027E-3,-1.9586233E-2,2.54582E2,2.384877E-3,2.6295126E2,2.40893E2,2.5355122E2,-2.0729074E-2,9.702847E-3,3.5250347E-2,1.0754767E-2,-3.1833686E-3,4.118401E-2,-7.154184E-2,-5.2463925E-3],"split_indices":[2,2,0,7,1,0,1,0,0,0,0,0,0,0,0],"split_type":[0,0,0,0,0,0,0,0,0,0,0,0,0,0,0],"sum_hessian":[3.1680793E3,7.84462E2,2.3836174E3,2.5251154E2,5.3195044E2,2.5956512E2,2.1240522E3,9.6796265E1,1.5571527E2,1.827124E2,3.4923804E2,1.1243666E2,1.4712845E2,6.518093E1,2.0588713E3],"tree_param":{"num_deleted":"0","num_feature":"8","num_nodes":"15","size_leaf_vector":"1"}},{"base_weights":[-3.9868458E-4,1.9532165E-2,-9.85942E-1,-9.2337035E-2,1.8239956E-1,-3.321404E-1,-5.948868E-2,-7.826731E-3,2.7563736E-2,2.2614194E-2,3.4792684E-3,1.5600669E-2,-5.935324E-2],"categories":[],"categories_nodes":[],"categories_segments":[],"categories_sizes":[],"default_left":[0,0,0,0,0,0,0,0,0,0,0,0,0],"id":34,"left_children":[1,3,5,7,9,11,-1,-1,-1,-1,-1,-1,-1],"loss_changes":[6.2142696E1,5.651585E1,7.9620285E0,7.6068726E1,3.8423023E1,9.342228E0,0E0,0E0,0E0,0E0,0E0,0E0,0E0],"parents":[2147483647,0,0,1,1,2,2,3,3,4,4,5,5],"right_children":[2,4,6,8,10,12,-1,-1,-1,-1,-1,-1,-1],"split_conditions":[2.91924E2,1.7086508E-3,7.2359433E-4,2.86218E2,2.585027E2,2.9277393E2,-5.948868E-2,-7.826731E-3,2.7563736E-2,2.2614194E-2,3.4792684E-3,1.5600669E-2,-5.935324E-2],"split_indices":[0,4,2,0,1,1,0,0,0,0,0,0,0],"split_type":[0,0,0,0,0,0,0,0,0,0,0,0,0],"sum_hessian":[3.1616707E3,3.0999597E3,6.1710953E1,1.8379528E3,1.262007E3,1.5291635E1,4.641932E1,1.6719406E3,1.6601225E2,3.7113504E2,8.908719E2,9.082983E0,6.208651E0],"tree_param":{"num_deleted":"0","num_feature":"8","num_nodes":"13","size_leaf_vector":"1"}},{"base_weights":[-4.094049E-4,-2.673397E-1,6.863056E-2,2.600225E-1,-7.172305E-1,-7.768225E-2,2.0809425E-1,-4.622739E-2,2.2779083E-2,-5.207048E-2,-1.7906843E-2,4.9863043E-3,-3.0479703E-2,4.8311185E-2,5.5496185E-3],"categories":[],"categories_nodes":[],"categories_segments":[],"categories_sizes":[],"default_left":[0,0,0,0,0,0,0,0,0,0,0,0,0,0,0],"id":35,"left_children":[1,3,5,7,9,11,13,-1,-1,-1,-1,-1,-1,-1,-1],"loss_changes":[5.8200924E1,1.5416037E2,5.121649E1,6.98014E1,4.042659E1,1.1568151E2,9.448335E1,0E0,0E0,0E0,0E0,0E0,0E0,0E0,0E0],"parents":[2147483647,0,0,1,1,2,2,3,3,4,4,5,5,6,6],"right_children":[2,4,6,8,10,12,14,-1,-1,-1,-1,-1,-1,-1,-1],"split_conditions":[9.7615033E-4,2.64865E2,2.6894504E2,2.5355122E2,2.758694E2,2.61057E2,2.695883E2,-4.622739E-2,2.2779083E-2,-5.207048E-2,-1.7906843E-2,4.9863043E-3,-3.0479703E-2,4.8311185E-2,5.5496185E-3],"split_indices":[4,0,1,1,1,0,1,0,0,0,0,0,0,0,0],"split_type":[0,0,0,0,0,0,0,0,0,0,0,0,0,0,0],"sum_hessian":[3.1561445E3,6.4797943E2,2.5081653E3,2.9849982E2,3.494796E2,1.2242426E3,1.2839227E3,4.176809E1,2.5673172E2,1.8267021E2,1.668094E2,9.1865607E2,3.055865E2,1.4475873E2,1.139164E3],"tree_param":{"num_deleted":"0","num_feature":"8","num_nodes":"15","size_leaf_vector":"1"}},{"base_weights":[-4.3834993E-4,1.8587684E-2,-9.692882E-1,3.175355E-3,1.1705327E0,-3.246408E-1,-5.8817346E-2,3.9283605E-3,-1.7414369E-2,8.3360225E-2,-8.4116034E-2,1.4822321E-2,-5.833878E-2],"categories":[],"categories_nodes":[],"categories_segments":[],"categories_sizes":[],"default_left":[0,0,0,0,0,0,0,0,0,0,0,0,0],"id":36,"left_children":[1,3,5,7,9,11,-1,-1,-1,-1,-1,-1,-1],"loss_changes":[5.8084236E1,5.4863235E1,7.718666E0,8.085971E1,6.0613754E1,8.785091E0,0E0,0E0,0E0,0E0,0E0,0E0,0E0],"parents":[2147483647,0,0,1,1,2,2,3,3,4,4,5,5],"right_children":[2,4,6,8,10,12,-1,-1,-1,-1,-1,-1,-1],"split_conditions":[2.91924E2,2.6014209E-2,7.2359433E-4,9.251801E-3,6.2113434E1,2.9277393E2,-5.8817346E-2,3.9283605E-3,-1.7414369E-2,8.3360225E-2,-8.4116034E-2,1.4822321E-2,-5.833878E-2],"split_indices":[0,2,2,2,6,1,0,0,0,0,0,0,0],"split_type":[0,0,0,0,0,0,0,0,0,0,0,0,0],"sum_hessian":[3.1490598E3,3.0893723E3,5.968752E1,3.0495737E3,3.97987E1,1.5134936E1,4.455258E1,2.5115916E3,5.3798206E2,3.4251274E1,5.547426E0,9.083614E0,6.051322E0],"tree_param":{"num_deleted":"0","num_feature":"8","num_nodes":"13","size_leaf_vector":"1"}},{"base_weights":[-4.6948186E-4,-2.5546389E-2,6.899993E-1,5.42981E-2,-4.5682454E-1,-1.1931891E0,1.0830997E0,2.8202564E-2,-1.1949906E-3,3.281022E-2,-2.7651304E-2,2.3173315E-2,-7.011506E-2,7.36181E-2,-4.1515093E-2],"categories":[],"categories_nodes":[],"categories_segments":[],"categories_sizes":[],"default_left":[0,0,0,0,0,0,0,0,0,0,0,0,0,0,0],"id":37,"left_children":[1,3,5,7,9,11,13,-1,-1,-1,-1,-1,-1,-1,-1],"loss_changes":[5.449633E1,1.04606514E2,8.294742E1,1.0219967E2,5.1174026E1,7.4136868E0,6.958032E1,0E0,0E0,0E0,0E0,0E0,0E0,0E0,0E0],"parents":[2147483647,0,0,1,1,2,2,3,3,4,4,5,5,6,6],"right_children":[2,4,6,8,10,12,14,-1,-1,-1,-1,-1,-1,-1,-1],"split_conditions":[2.0722961E-2,9.251801E-3,2.557159E2,2.553122E2,2.53736E2,2.54251E2,6.366213E1,2.8202564E-2,-1.1949906E-3,3.281022E-2,-2.7651304E-2,2.3173315E-2,-7.011506E-2,7.36181E-2,-4.1515093E-2],"split_indices":[2,2,1,1,0,0,6,0,0,0,0,0,0,0,0],"split_type":[0,0,0,0,0,0,0,0,0,0,0,0,0,0,0],"sum_hessian":[3.1453623E3,3.0360596E3,1.0930264E2,2.5625222E3,4.7353732E2,1.8524374E1,9.0778275E1,3.3999094E2,2.2225312E3,3.7209633E1,4.363277E2,1.9398539E0,1.658452E1,7.562386E1,1.5154409E1],"tree_param":{"num_deleted":"0","num_feature":"8","num_nodes":"15","size_leaf_vector":"1"}},{"base_weights":[-4.3315403E-4,1.7657481E-2,-9.515558E-1,-3.4332203E-3,8.4654915E-1,-1.113828E0,-1.2533024E-1,1.4192859E-2,-3.116322E-3,4.9072485E-2,-5.58227E-2,-1.9917337E-2,-5.732528E-2,5.7609834E-2,-5.321404E-2],"categories":[],"categories_nodes":[],"categories_segments":[],"categories_sizes":[],"default_left":[0,0,0,0,0,0,0,0,0,0,0,0,0,0,0],"id":38,"left_children":[1,3,5,7,9,11,13,-1,-1,-1,-1,-1,-1,-1,-1],"loss_changes":[5.405727E1,5.390095E1,7.7225456E0,5.090416E1,2.1354984E1,6.8629456E-1,1.4125154E1,0E0,0E0,0E0,0E0,0E0,0E0,0E0,0E0],"parents":[2147483647,0,0,1,1,2,2,3,3,4,4,5,5,6,6],"right_children":[2,4,6,8,10,12,14,-1,-1,-1,-1,-1,-1,-1,-1],"split_conditions":[2.91924E2,2.9154346E2,4.395352E-3,2.553122E2,2.928648E2,-1.3446377E-3,4.5269897E1,1.4192859E-2,-3.116322E-3,4.9072485E-2,-5.58227E-2,-1.9917337E-2,-5.732528E-2,5.7609834E-2,-5.321404E-2],"split_indices":[0,1,7,1,1,2,6,0,0,0,0,0,0,0,0],"split_type":[0,0,0,0,0,0,0,0,0,0,0,0,0,0,0],"sum_hessian":[3.1397166E3,3.082076E3,5.764057E1,3.0065713E3,7.550473E1,4.788732E1,9.753249E0,5.108321E2,2.4957393E3,7.1117455E1,4.3872743E0,2.6677048E0,4.5219616E1,4.03549E0,5.717759E0],"tree_param":{"num_deleted":"0","num_feature":"8","num_nodes":"15","size_leaf_vector":"1"}},{"base_weights":[-4.4069358E-4,2.2095934E-1,-7.361514E-2,-5.079658E-2,3.5065073E-1,2.6895493E-1,-1.5117557E-1,-1.5854947E-2,1.4141472E-2,3.286571E-2,9.519054E-3,-5.2394425E-3,4.445483E-2,-6.7955725E-2,-4.8033292E-3],"categories":[],"categories_nodes":[],"categories_segments":[],"categories_sizes":[],"default_left":[0,0,0,0,0,0,0,0,0,0,0,0,0,0,0],"id":39,"left_children":[1,3,5,7,9,11,13,-1,-1,-1,-1,-1,-1,-1,-1],"loss_changes":[5.0839706E1,2.7491734E1,6.2707417E1,2.254152E1,2.5816566E1,1.0109454E2,1.2793277E2,0E0,0E0,0E0,0E0,0E0,0E0,0E0,0E0],"parents":[2147483647,0,0,1,1,2,2,3,3,4,4,5,5,6,6],"right_children":[2,4,6,8,10,12,14,-1,-1,-1,-1,-1,-1,-1,-1],"split_conditions":[-7.961027E-3,-1.9586233E-2,2.553122E2,2.68361E2,2.6295126E2,2.538324E2,2.5555186E2,-1.5854947E-2,1.4141472E-2,3.286571E-2,9.519054E-3,-5.2394425E-3,4.445483E-2,-6.7955725E-2,-4.8033292E-3],"split_indices":[2,2,1,1,1,1,1,0,0,0,0,0,0,0,0],"split_type":[0,0,0,0,0,0,0,0,0,0,0,0,0,0,0],"sum_hessian":[3.1360898E3,7.7852594E2,2.357564E3,2.5170677E2,5.2681915E2,4.3477512E2,1.922789E3,1.4000414E2,1.1170264E2,1.7976038E2,3.4705875E2,2.7179944E2,1.6297566E2,8.2862206E1,1.8399266E3],"tree_param":{"num_deleted":"0","num_feature":"8","num_nodes":"15","size_leaf_vector":"1"}},{"base_weights":[-4.034284E-4,1.8423704E-2,-8.5252357E-1,-1.0373758E-4,9.8515505E-1,-1.099893E0,1.6147022E-1,-1.265392E-3,3.3523306E-2,5.8050204E-2,-5.0734203E-2,-5.6687023E-2,2.937543E-3,6.469728E-2,-4.3902468E-2],"categories":[],"categories_nodes":[],"categories_segments":[],"categories_sizes":[],"default_left":[0,0,0,0,0,0,0,0,0,0,0,0,0,0,0],"id":40,"left_children":[1,3,5,7,9,11,13,-1,-1,-1,-1,-1,-1,-1,-1],"loss_changes":[5.0292767E1,5.493568E1,1.717545E1,5.089702E1,2.1461102E1,2.2080307E0,1.7807837E1,0E0,0E0,0E0,0E0,0E0,0E0,0E0,0E0],"parents":[2147483647,0,0,1,1,2,2,3,3,4,4,5,5,6,6],"right_children":[2,4,6,8,10,12,14,-1,-1,-1,-1,-1,-1,-1,-1],"split_conditions":[2.91634E2,2.9182202E2,4.395352E-3,2.0722961E-2,2.928648E2,2.7274515E-3,4.5269897E1,-1.265392E-3,3.3523306E-2,5.8050204E-2,-5.0734203E-2,-5.6687023E-2,2.937543E-3,6.469728E-2,-4.3902468E-2],"split_indices":[0,1,7,2,1,3,6,0,0,0,0,0,0,0,0],"split_type":[0,0,0,0,0,0,0,0,0,0,0,0,0,0,0],"sum_hessian":[3.132898E3,3.0661318E3,6.676614E1,3.0094553E3,5.6676434E1,5.360435E1,1.3161791E1,2.9013667E3,1.0808879E2,5.2481136E1,4.195297E0,5.2103737E1,1.500614E0,6.1821113E0,6.97968E0],"tree_param":{"num_deleted":"0","num_feature":"8","num_nodes":"15","size_leaf_vector":"1"}},{"base_weights":[-3.864141E-4,-2.489269E-1,6.3288726E-2,2.4331936E-1,-6.754026E-1,-7.801434E-2,1.9809641E-1,-4.4191536E-2,2.1273484E-2,-4.9797017E-2,-1.60741E-2,-1.5724257E-2,1.5221012E-2,4.6332575E-2,5.238235E-3],"categories":[],"categories_nodes":[],"categories_segments":[],"categories_sizes":[],"default_left":[0,0,0,0,0,0,0,0,0,0,0,0,0,0,0],"id":41,"left_children":[1,3,5,7,9,11,13,-1,-1,-1,-1,-1,-1,-1,-1],"loss_changes":[4.9564983E1,1.3425536E2,4.750713E1,6.14028E1,3.853441E1,1.1024286E2,8.668046E1,0E0,0E0,0E0,0E0,0E0,0E0,0E0,0E0],"parents":[2147483647,0,0,1,1,2,2,3,3,4,4,5,5,6,6],"right_children":[2,4,6,8,10,12,14,-1,-1,-1,-1,-1,-1,-1,-1],"split_conditions":[9.7615033E-4,2.64865E2,2.6894504E2,2.5355122E2,2.758694E2,2.0439143E-3,2.695883E2,-4.4191536E-2,2.1273484E-2,-4.9797017E-2,-1.60741E-2,-1.5724257E-2,1.5221012E-2,4.6332575E-2,5.238235E-3],"split_indices":[4,0,1,1,1,4,1,0,0,0,0,0,0,0,0],"split_type":[0,0,0,0,0,0,0,0,0,0,0,0,0,0,0],"sum_hessian":[3.1299048E3,6.3773834E2,2.4921663E3,2.9624094E2,3.414974E2,1.2169753E3,1.275191E3,4.0677223E1,2.5556372E2,1.7824812E2,1.6324928E2,7.5210425E2,4.6487103E2,1.4379407E2,1.131397E3],"tree_param":{"num_deleted":"0","num_feature":"8","num_nodes":"15","size_leaf_vector":"1"}},{"base_weights":[-4.0106635E-4,7.4802476E-1,-2.1880329E-2,9.8826516E-1,-1.0805672E-1,-1.8410469E0,-1.0427653E-2,1.0470528E-2,6.276744E-2,-1.06645085E-1,5.0389912E-2,-9.259773E-3,4.5953975E-3],"categories":[],"categories_nodes":[],"categories_segments":[],"categories_sizes":[],"default_left":[0,0,0,0,0,0,0,0,0,0,0,0,0],"id":42,"left_children":[1,3,5,7,-1,9,11,-1,-1,-1,-1,-1,-1],"loss_changes":[5.023012E1,6.3060253E1,6.3263443E1,1.6630135E1,0E0,1.7944519E1,5.4019344E1,0E0,0E0,0E0,0E0,0E0,0E0],"parents":[2147483647,0,0,1,1,2,2,3,3,5,5,6,6],"right_children":[2,4,6,8,-1,10,12,-1,-1,-1,-1,-1,-1],"split_conditions":[2.3489075E2,8.31986E-3,2.3493336E2,4.222451E1,-1.0805672E-1,4.143143E-3,1.2838303E-3,1.0470528E-2,6.276744E-2,-1.06645085E-1,5.0389912E-2,-9.259773E-3,4.5953975E-3],"split_indices":[1,2,1,6,0,2,4,0,0,0,0,0,0],"split_type":[0,0,0,0,0,0,0,0,0,0,0,0,0],"sum_hessian":[3.122594E3,8.617227E1,3.0364216E3,8.020886E1,5.9634123E0,1.7996946E1,3.0184248E3,2.0937153E1,5.9271706E1,1.6552507E1,1.4444392E0,1.1144196E3,1.9040052E3],"tree_param":{"num_deleted":"0","num_feature":"8","num_nodes":"13","size_leaf_vector":"1"}},{"base_weights":[-3.967036E-4,1.3547292E-2,-1.0841383E0,7.188497E-1,-6.743448E-3,-5.6924548E-2,1.394806E-2,4.7657054E-2,-1.017045E-1,-8.64627E-2,2.1929783E-4],"categories":[],"categories_nodes":[],"categories_segments":[],"categories_sizes":[],"default_left":[0,0,0,0,0,0,0,0,0,0,0],"id":43,"left_children":[1,3,5,7,9,-1,-1,-1,-1,-1,-1],"loss_changes":[4.7165257E1,4.410441E1,3.2550163E0,5.7524773E1,5.7448402E1,0E0,0E0,0E0,0E0,0E0,0E0],"parents":[2147483647,0,0,1,1,2,2,3,3,4,4],"right_children":[2,4,6,8,10,-1,-1,-1,-1,-1,-1],"split_conditions":[2.92733E2,2.3489075E2,9.506947E-3,8.31986E-3,2.3493336E2,-5.6924548E-2,1.394806E-2,4.7657054E-2,-1.017045E-1,-8.64627E-2,2.1929783E-4],"split_indices":[0,1,7,2,1,0,0,0,0,0,0],"split_type":[0,0,0,0,0,0,0,0,0,0,0],"sum_hessian":[3.1191392E3,3.0804915E3,3.8647743E1,8.518119E1,2.9953103E3,3.7324245E1,1.3234988E0,7.910285E1,6.078345E0,1.8237867E1,2.9770725E3],"tree_param":{"num_deleted":"0","num_feature":"8","num_nodes":"11","size_leaf_vector":"1"}},{"base_weights":[-4.3763092E-4,-2.32464E-2,6.301296E-1,5.094754E-2,-4.2532519E-1,-1.1857629E0,1.0109501E0,2.532847E-2,-9.04003E-4,3.255906E-2,-2.5936266E-2,2.1505019E-2,-6.9441736E-2,6.9408976E-2,-4.0860116E-2],"categories":[],"categories_nodes":[],"categories_segments":[],"categories_sizes":[],"default_left":[0,0,0,0,0,0,0,0,0,0,0,0,0,0,0],"id":44,"left_children":[1,3,5,7,9,11,13,-1,-1,-1,-1,-1,-1,-1,-1],"loss_changes":[4.48561E1,8.9812805E1,7.64888E1,7.995377E1,4.7493004E1,6.9417458E0,6.3573837E1,0E0,0E0,0E0,0E0,0E0,0E0,0E0,0E0],"parents":[2147483647,0,0,1,1,2,2,3,3,4,4,5,5,6,6],"right_children":[2,4,6,8,10,12,14,-1,-1,-1,-1,-1,-1,-1,-1],"split_conditions":[2.0722961E-2,9.251801E-3,2.557159E2,2.553122E2,2.53736E2,2.54251E2,6.366213E1,2.532847E-2,-9.04003E-4,3.255906E-2,-2.5936266E-2,2.1505019E-2,-6.9441736E-2,6.9408976E-2,-4.0860116E-2],"split_indices":[2,2,1,1,0,0,6,0,0,0,0,0,0,0,0],"split_type":[0,0,0,0,0,0,0,0,0,0,0,0,0,0,0],"sum_hessian":[3.116787E3,3.0089124E3,1.0787473E2,2.5409202E3,4.6799222E2,1.8334656E1,8.9540085E1,3.3347235E2,2.2074478E3,3.6885647E1,4.311066E2,1.9221272E0,1.6412527E1,7.44238E1,1.5116284E1],"tree_param":{"num_deleted":"0","num_feature":"8","num_nodes":"15","size_leaf_vector":"1"}},{"base_weights":[-4.0339775E-4,1.2854652E-2,-1.0717463E0,-7.5683207E-3,6.7390287E-1,-5.638335E-2,1.3552475E-2,2.4383161E-3,-1.2799737E-2,2.473901E-2,7.908422E-2],"categories":[],"categories_nodes":[],"categories_segments":[],"categories_sizes":[],"default_left":[0,0,0,0,0,0,0,0,0,0,0],"id":45,"left_children":[1,3,5,7,9,-1,-1,-1,-1,-1,-1],"loss_changes":[4.4215527E1,4.1517853E1,3.1629753E0,4.176978E1,1.4203392E1,0E0,0E0,0E0,0E0,0E0,0E0],"parents":[2147483647,0,0,1,1,2,2,3,3,4,4],"right_children":[2,4,6,8,10,-1,-1,-1,-1,-1,-1],"split_conditions":[2.92733E2,4.9789487E-3,9.506947E-3,9.251801E-3,1.1356466E-2,-5.638335E-2,1.3552475E-2,2.4383161E-3,-1.2799737E-2,2.473901E-2,7.908422E-2],"split_indices":[0,4,7,2,2,0,0,0,0,0,0],"split_type":[0,0,0,0,0,0,0,0,0,0,0],"sum_hessian":[3.110941E3,3.0738892E3,3.7051895E1,2.9827268E3,9.1162285E1,3.5724365E1,1.3275306E0,2.4320293E3,5.5069763E2,7.7429085E1,1.3733197E1],"tree_param":{"num_deleted":"0","num_feature":"8","num_nodes":"11","size_leaf_vector":"1"}},{"base_weights":[-3.8023232E-4,-2.2448676E-2,6.1481726E-1,4.612679E-2,-3.9624083E-1,-1.1416304E0,9.7967607E-1,2.4070466E-2,-9.6870866E-4,3.1777073E-2,-2.4294717E-2,2.1241186E-2,-6.713288E-2,6.7186646E-2,-3.8334243E-2],"categories":[],"categories_nodes":[],"categories_segments":[],"categories_sizes":[],"default_left":[0,0,0,0,0,0,0,0,0,0,0,0,0,0,0],"id":46,"left_children":[1,3,5,7,9,11,13,-1,-1,-1,-1,-1,-1,-1,-1],"loss_changes":[4.222372E1,7.697749E1,7.013945E1,7.236636E1,4.3371338E1,6.549135E0,5.806887E1,0E0,0E0,0E0,0E0,0E0,0E0,0E0,0E0],"parents":[2147483647,0,0,1,1,2,2,3,3,4,4,5,5,6,6],"right_children":[2,4,6,8,10,12,14,-1,-1,-1,-1,-1,-1,-1,-1],"split_conditions":[2.0722961E-2,9.251801E-3,2.557159E2,2.553122E2,2.53736E2,2.54251E2,6.366213E1,2.4070466E-2,-9.6870866E-4,3.1777073E-2,-2.4294717E-2,2.1241186E-2,-6.713288E-2,6.7186646E-2,-3.8334243E-2],"split_indices":[2,2,1,1,0,0,6,0,0,0,0,0,0,0,0],"split_type":[0,0,0,0,0,0,0,0,0,0,0,0,0,0,0],"sum_hessian":[3.1080537E3,3.0013523E3,1.0670139E2,2.536826E3,4.645265E2,1.7986166E1,8.8715225E1,3.309786E2,2.2058474E3,3.6649918E1,4.2787656E2,1.9190667E0,1.60671E1,7.360222E1,1.5113006E1],"tree_param":{"num_deleted":"0","num_feature":"8","num_nodes":"15","size_leaf_vector":"1"}},{"base_weights":[-3.4773163E-4,1.6231883E-2,-8.0701655E-1,-1.393346E-3,9.4568646E-1,-1.0621895E0,1.8630679E-1,-1.0998357E-3,3.2612633E-2,5.598421E-2,-4.8787765E-2,-6.027478E-2,-3.189232E-2,6.2198915E-2,-4.1821044E-2],"categories":[],"categories_nodes":[],"categories_segments":[],"categories_sizes":[],"default_left":[0,0,0,0,0,0,0,0,0,0,0,0,0,0,0],"id":47,"left_children":[1,3,5,7,9,11,13,-1,-1,-1,-1,-1,-1,-1,-1],"loss_changes":[4.1514786E1,4.9828156E1,1.6043236E1,4.0227493E1,2.0017307E1,2.2647133E0,1.5781625E1,0E0,0E0,0E0,0E0,0E0,0E0,0E0,0E0],"parents":[2147483647,0,0,1,1,2,2,3,3,4,4,5,5,6,6],"right_children":[2,4,6,8,10,12,14,-1,-1,-1,-1,-1,-1,-1,-1],"split_conditions":[2.91634E2,2.9182202E2,4.395352E-3,4.9789487E-3,2.928648E2,1.5674192E-3,4.5269897E1,-1.0998357E-3,3.2612633E-2,5.598421E-2,-4.8787765E-2,-6.027478E-2,-3.189232E-2,6.2198915E-2,-4.1821044E-2],"split_indices":[0,1,7,4,1,4,6,0,0,0,0,0,0,0,0],"split_type":[0,0,0,0,0,0,0,0,0,0,0,0,0,0,0],"sum_hessian":[3.1021016E3,3.0405876E3,6.151389E1,2.9849822E3,5.5605656E1,4.8886265E1,1.2627624E1,2.8947053E3,9.027673E1,5.1370983E1,4.234674E0,3.5168537E1,1.3717727E1,6.101411E0,6.5262127E0],"tree_param":{"num_deleted":"0","num_feature":"8","num_nodes":"15","size_leaf_vector":"1"}},{"base_weights":[-3.4338696E-4,1.1715057E-2,-1.0510542E0,-7.951247E-4,9.90715E-1,1.3115518E-2,-5.546509E-2,2.8726521E-3,-1.3875595E-2,7.268672E-2,-7.8029744E-2],"categories":[],"categories_nodes":[],"categories_segments":[],"categories_sizes":[],"default_left":[0,0,0,0,0,0,0,0,0,0,0],"id":48,"left_children":[1,3,5,7,9,-1,-1,-1,-1,-1,-1],"loss_changes":[3.9287296E1,3.7547516E1,2.9824677E0,4.8821854E1,4.7963154E1,0E0,0E0,0E0,0E0,0E0,0E0],"parents":[2147483647,0,0,1,1,2,2,3,3,4,4],"right_children":[2,4,6,8,10,-1,-1,-1,-1,-1,-1],"split_conditions":[2.92733E2,2.6014209E-2,-1.5320857E-3,9.251801E-3,6.2113434E1,1.3115518E-2,-5.546509E-2,2.8726521E-3,-1.3875595E-2,7.268672E-2,-7.8029744E-2],"split_indices":[0,2,2,2,6,0,0,0,0,0,0],"split_type":[0,0,0,0,0,0,0,0,0,0,0],"sum_hessian":[3.0988557E3,3.064673E3,3.4182755E1,3.0269917E3,3.7681324E1,1.3028445E0,3.287991E1,2.5012727E3,5.257191E2,3.2257362E1,5.4239607E0],"tree_param":{"num_deleted":"0","num_feature":"8","num_nodes":"11","size_leaf_vector":"1"}},{"base_weights":[-3.5289163E-4,-2.1077465E-2,5.865489E-1,4.159667E-2,-3.6473042E-1,-1.0945998E0,9.3445045E-1,2.287212E-2,-1.031143E-3,3.1112282E-2,-2.2540241E-2,2.1051517E-2,-6.47139E-2,6.4097315E-2,-3.5142414E-2],"categories":[],"categories_nodes":[],"categories_segments":[],"categories_sizes":[],"default_left":[0,0,0,0,0,0,0,0,0,0,0,0,0,0,0],"id":49,"left_children":[1,3,5,7,9,11,13,-1,-1,-1,-1,-1,-1,-1,-1],"loss_changes":[3.767541E1,6.445313E1,6.281288E1,6.55018E1,3.9492863E1,6.166363E0,5.100995E1,0E0,0E0,0E0,0E0,0E0,0E0,0E0,0E0],"parents":[2147483647,0,0,1,1,2,2,3,3,4,4,5,5,6,6],"right_children":[2,4,6,8,10,12,14,-1,-1,-1,-1,-1,-1,-1,-1],"split_conditions":[2.0722961E-2,9.251801E-3,2.557159E2,2.553122E2,2.53736E2,2.54251E2,6.366213E1,2.287212E-2,-1.031143E-3,3.1112282E-2,-2.2540241E-2,2.1051517E-2,-6.47139E-2,6.4097315E-2,-3.5142414E-2],"split_indices":[2,2,1,1,0,0,6,0,0,0,0,0,0,0,0],"split_type":[0,0,0,0,0,0,0,0,0,0,0,0,0,0,0],"sum_hessian":[3.0954521E3,2.9908054E3,1.0464671E2,2.5302305E3,4.6057498E2,1.757475E1,8.707196E1,3.2847928E2,2.2017512E3,3.644521E1,4.241298E2,1.9168235E0,1.5657927E1,7.200653E1,1.5065435E1],"tree_param":{"num_deleted":"0","num_feature":"8","num_nodes":"15","size_leaf_vector":"1"}},{"base_weights":[-3.202863E-4,1.1155701E-2,-1.0400529E0,-3.834326E-2,2.4955231E-1,-5.500543E-2,1.2926984E-2,-2.6663493E-3,5.0943803E-2,8.89417E-3,3.1006578E-2],"categories":[],"categories_nodes":[],"categories_segments":[],"categories_sizes":[],"default_left":[0,0,0,0,0,0,0,0,0,0,0],"id":50,"left_children":[1,3,5,7,9,-1,-1,-1,-1,-1,-1],"loss_changes":[3.688631E1,3.609121E1,2.9163933E0,4.0176903E1,1.3855724E1,0E0,0E0,0E0,0E0,0E0,0E0],"parents":[2147483647,0,0,1,1,2,2,3,3,4,4],"right_children":[2,4,6,8,10,-1,-1,-1,-1,-1,-1],"split_conditions":[2.92733E2,3.654671E-3,9.506947E-3,2.6014209E-2,4.9789487E-3,-5.500543E-2,1.2926984E-2,-2.6663493E-3,5.0943803E-2,8.89417E-3,3.1006578E-2],"split_indices":[0,7,7,2,4,0,0,0,0,0,0],"split_type":[0,0,0,0,0,0,0,0,0,0,0],"sum_hessian":[3.089415E3,3.0566665E3,3.2748505E1,2.5318171E3,5.248492E2,3.144703E1,1.3014772E0,2.497372E3,3.4445118E1,4.410345E2,8.381472E1],"tree_param":{"num_deleted":"0","num_feature":"8","num_nodes":"11","size_leaf_vector":"1"}},{"base_weights":[-2.9365227E-4,1.8816295E-1,-6.303505E-2,-6.9115974E-2,3.1213832E-1,2.4485072E-1,-1.3172218E-1,-1.63282E-2,1.2715585E-2,3.0333964E-2,8.015836E-3,-6.4568236E-3,4.2725366E-2,-6.334237E-2,-3.9666104E-3],"categories":[],"categories_nodes":[],"categories_segments":[],"categories_sizes":[],"default_left":[0,0,0,0,0,0,0,0,0,0,0,0,0,0,0],"id":51,"left_children":[1,3,5,7,9,11,13,-1,-1,-1,-1,-1,-1,-1,-1],"loss_changes":[3.6516808E1,2.4625538E1,4.9031208E1,2.1037106E1,2.3188232E1,9.654861E1,1.1259415E2,0E0,0E0,0E0,0E0,0E0,0E0,0E0,0E0],"parents":[2147483647,0,0,1,1,2,2,3,3,4,4,5,5,6,6],"right_children":[2,4,6,8,10,12,14,-1,-1,-1,-1,-1,-1,-1,-1],"split_conditions":[-7.961027E-3,-1.9586233E-2,2.553122E2,2.68361E2,2.6295126E2,2.538324E2,2.5555186E2,-1.63282E-2,1.2715585E-2,3.0333964E-2,8.015836E-3,-6.4568236E-3,4.2725366E-2,-6.334237E-2,-3.9666104E-3],"split_indices":[2,2,1,1,1,1,1,0,0,0,0,0,0,0,0],"split_type":[0,0,0,0,0,0,0,0,0,0,0,0,0,0,0],"sum_hessian":[3.086352E3,7.703748E2,2.3159773E3,2.5065254E2,5.197223E2,4.2196793E2,1.8940094E3,1.3955623E2,1.11096306E2,1.7575449E2,3.439678E2,2.6202173E2,1.5994621E2,8.253591E1,1.8114735E3],"tree_param":{"num_deleted":"0","num_feature":"8","num_nodes":"15","size_leaf_vector":"1"}},{"base_weights":[-2.6704147E-4,-2.1373242E-1,5.370546E-2,2.4884745E-1,-6.2113017E-1,-8.6347386E-2,1.8684655E-1,2.9827047E-2,-1.3978994E-2,-4.7014296E-2,-1.3499382E-2,-1.4801209E-2,1.2743445E-2,4.4066794E-2,4.8930584E-3],"categories":[],"categories_nodes":[],"categories_segments":[],"categories_sizes":[],"default_left":[0,0,0,0,0,0,0,0,0,0,0,0,0,0,0],"id":52,"left_children":[1,3,5,7,9,11,13,-1,-1,-1,-1,-1,-1,-1,-1],"loss_changes":[3.554392E1,1.1748756E2,4.5933247E1,5.3866173E1,3.6878662E1,8.598454E1,7.794784E1,0E0,0E0,0E0,0E0,0E0,0E0,0E0,0E0],"parents":[2147483647,0,0,1,1,2,2,3,3,4,4,5,5,6,6],"right_children":[2,4,6,8,10,12,14,-1,-1,-1,-1,-1,-1,-1,-1],"split_conditions":[9.7615033E-4,2.64865E2,2.6894504E2,7.992084E-4,2.758694E2,2.0439143E-3,2.695883E2,2.9827047E-2,-1.3978994E-2,-4.7014296E-2,-1.3499382E-2,-1.4801209E-2,1.2743445E-2,4.4066794E-2,4.8930584E-3],"split_indices":[4,0,1,4,1,4,1,0,0,0,0,0,0,0,0],"split_type":[0,0,0,0,0,0,0,0,0,0,0,0,0,0,0],"sum_hessian":[3.083076E3,6.2160815E2,2.4614678E3,2.9127222E2,3.3033594E2,1.1997678E3,1.2617E3,1.7560146E2,1.1567077E2,1.721709E2,1.5816504E2,7.432032E2,4.5656458E2,1.4228986E2,1.11941E3],"tree_param":{"num_deleted":"0","num_feature":"8","num_nodes":"15","size_leaf_vector":"1"}},{"base_weights":[-2.704125E-4,6.397608E-1,-1.8098379E-2,8.724116E-1,-9.873243E-2,-1.6934258E0,-7.229128E-3,8.2674315E-3,5.8971465E-2,-9.826527E-2,4.9710825E-2,-7.5798943E-3,3.832188E-3],"categories":[],"categories_nodes":[],"categories_segments":[],"categories_sizes":[],"default_left":[0,0,0,0,0,0,0,0,0,0,0,0,0],"id":53,"left_children":[1,3,5,7,-1,9,11,-1,-1,-1,-1,-1,-1],"loss_changes":[3.5125813E1,5.2465046E1,5.452446E1,1.6585499E1,0E0,1.6057625E1,3.6054737E1,0E0,0E0,0E0,0E0,0E0,0E0],"parents":[2147483647,0,0,1,1,2,2,3,3,5,5,6,6],"right_children":[2,4,6,8,-1,10,12,-1,-1,-1,-1,-1,-1],"split_conditions":[2.3489075E2,8.31986E-3,2.3493336E2,4.380351E1,-9.873243E-2,4.143143E-3,1.2838303E-3,8.2674315E-3,5.8971465E-2,-9.826527E-2,4.9710825E-2,-7.5798943E-3,3.832188E-3],"split_indices":[1,2,1,6,0,2,4,0,0,0,0,0,0],"split_type":[0,0,0,0,0,0,0,0,0,0,0,0,0],"sum_hessian":[3.0763738E3,8.242426E1,2.9939495E3,7.630073E1,6.123535E0,1.8301207E1,2.9756482E3,2.3566214E1,5.2734512E1,1.686402E1,1.4371873E0,1.0931769E3,1.8824714E3],"tree_param":{"num_deleted":"0","num_feature":"8","num_nodes":"13","size_leaf_vector":"1"}},{"base_weights":[-2.715593E-4,1.2909284E-2,-8.523403E-1,-2.075165E-2,4.150542E-1,-2.4208532E-1,-5.498308E-2,5.7300174E-4,-1.0444615E-1,3.0342847E-2,-3.3576727E-2,1.661835E-2,-5.481208E-2],"categories":[],"categories_nodes":[],"categories_segments":[],"categories_sizes":[],"default_left":[0,0,0,0,0,0,0,0,0,0,0,0,0],"id":54,"left_children":[1,3,5,7,9,11,-1,-1,-1,-1,-1,-1,-1],"loss_changes":[3.453554E1,4.100006E1,6.8038445E0,1.8624208E2,4.9163292E1,7.622268E0,0E0,0E0,0E0,0E0,0E0,0E0,0E0],"parents":[2147483647,0,0,1,1,2,2,3,3,4,4,5,5],"right_children":[2,4,6,8,10,12,-1,-1,-1,-1,-1,-1,-1],"split_conditions":[2.91924E2,2.8837802E2,7.2359433E-4,2.8698438E2,-2.6437382E-3,2.9277393E2,-5.498308E-2,5.7300174E-4,-1.0444615E-1,3.0342847E-2,-3.3576727E-2,1.661835E-2,-5.481208E-2],"split_indices":[0,1,2,1,2,1,0,0,0,0,0,0,0],"split_type":[0,0,0,0,0,0,0,0,0,0,0,0,0],"sum_hessian":[3.0730437E3,3.0272E3,4.5843594E1,2.7942593E3,2.3294084E2,1.3791783E1,3.205181E1,2.7523853E3,4.1873833E1,1.9836696E2,3.457388E1,8.611265E0,5.180518E0],"tree_param":{"num_deleted":"0","num_feature":"8","num_nodes":"13","size_leaf_vector":"1"}},{"base_weights":[-3.269125E-4,1.0064924E-2,-1.019601E0,-5.4852918E-2,1.8621877E-1,1.3201616E-2,-5.418072E-2,-4.6193655E-4,-6.2299903E-2,9.048013E-2,7.113541E-4],"categories":[],"categories_nodes":[],"categories_segments":[],"categories_sizes":[],"default_left":[0,0,0,0,0,0,0,0,0,0,0],"id":55,"left_children":[1,3,5,7,9,-1,-1,-1,-1,-1,-1],"loss_changes":[3.2541744E1,3.4788868E1,2.833912E0,1.20774895E2,2.2870462E2,0E0,0E0,0E0,0E0,0E0,0E0],"parents":[2147483647,0,0,1,1,2,2,3,3,4,4],"right_children":[2,4,6,8,10,-1,-1,-1,-1,-1,-1],"split_conditions":[2.92733E2,2.758694E2,-1.5320857E-3,2.746498E2,2.789545E2,1.3201616E-2,-5.418072E-2,-4.6193655E-4,-6.2299903E-2,9.048013E-2,7.113541E-4],"split_indices":[0,1,2,1,1,0,0,0,0,0,0],"split_type":[0,0,0,0,0,0,0,0,0,0,0],"sum_hessian":[3.0702878E3,3.0402812E3,3.000655E1,2.2220715E3,8.182098E2,1.2768937E0,2.8729656E1,2.1410876E3,8.098391E1,7.7469955E1,7.407398E2],"tree_param":{"num_deleted":"0","num_feature":"8","num_nodes":"11","size_leaf_vector":"1"}},{"base_weights":[-3.407267E-4,-1.9482458E-2,5.493474E-1,3.8678814E-2,-3.394809E-1,-1.0617398E0,8.827555E-1,2.114614E-2,-9.1557903E-4,3.0906353E-2,-2.1169983E-2,-6.494569E-2,1.240875E-2,6.1066102E-2,-3.3796865E-2],"categories":[],"categories_nodes":[],"categories_segments":[],"categories_sizes":[],"default_left":[0,0,0,0,0,0,0,0,0,0,0,0,0,0,0],"id":56,"left_children":[1,3,5,7,9,11,13,-1,-1,-1,-1,-1,-1,-1,-1],"loss_changes":[3.2316128E1,5.525074E1,5.6452965E1,5.5023827E1,3.695242E1,5.9689407E0,4.630316E1,0E0,0E0,0E0,0E0,0E0,0E0,0E0,0E0],"parents":[2147483647,0,0,1,1,2,2,3,3,4,4,5,5,6,6],"right_children":[2,4,6,8,10,12,14,-1,-1,-1,-1,-1,-1,-1,-1],"split_conditions":[2.0722961E-2,9.251801E-3,2.557159E2,2.553122E2,2.53736E2,1.7424247E-3,6.366213E1,2.114614E-2,-9.1557903E-4,3.0906353E-2,-2.1169983E-2,-6.494569E-2,1.240875E-2,6.1066102E-2,-3.3796865E-2],"split_indices":[2,2,1,1,0,3,6,0,0,0,0,0,0,0,0],"split_type":[0,0,0,0,0,0,0,0,0,0,0,0,0,0,0],"sum_hessian":[3.069279E3,2.9669268E3,1.0235242E2,2.511355E3,4.5557184E2,1.7175045E1,8.517737E1,3.235405E2,2.1878145E3,3.6193806E1,4.1937802E2,1.4549163E1,2.6258833E0,7.015526E1,1.5022109E1],"tree_param":{"num_deleted":"0","num_feature":"8","num_nodes":"15","size_leaf_vector":"1"}},{"base_weights":[-3.1187217E-4,9.574583E-3,-1.0095909E0,-5.300208E-2,1.7881833E-1,-5.3781506E-2,1.300084E-2,-4.8011207E-4,-5.9519906E-2,8.532228E-2,7.7765237E-4],"categories":[],"categories_nodes":[],"categories_segments":[],"categories_sizes":[],"default_left":[0,0,0,0,0,0,0,0,0,0,0],"id":57,"left_children":[1,3,5,7,9,-1,-1,-1,-1,-1,-1],"loss_changes":[3.0586039E1,3.2158474E1,2.7727737E0,1.0942309E2,2.0439919E2,0E0,0E0,0E0,0E0,0E0,0E0],"parents":[2147483647,0,0,1,1,2,2,3,3,4,4],"right_children":[2,4,6,8,10,-1,-1,-1,-1,-1,-1],"split_conditions":[2.92733E2,2.758694E2,9.506947E-3,2.746498E2,2.789545E2,-5.3781506E-2,1.300084E-2,-4.8011207E-4,-5.9519906E-2,8.532228E-2,7.7765237E-4],"split_indices":[0,1,7,1,1,0,0,0,0,0,0],"split_type":[0,0,0,0,0,0,0,0,0,0,0],"sum_hessian":[3.0633198E3,3.034585E3,2.873495E1,2.2159429E3,8.1864215E2,2.7459423E1,1.2755271E0,2.1354678E3,8.047501E1,7.8131905E1,7.405102E2],"tree_param":{"num_deleted":"0","num_feature":"8","num_nodes":"11","size_leaf_vector":"1"}},{"base_weights":[-3.2289678E-4,-1.4732756E-1,6.6965766E-2,4.1266438E-1,-2.5099972E-1,6.5894973E-1,4.7532316E-2,-3.155976E-2,5.7285048E-2,-1.5116309E-2,3.990172E-2,4.5049224E-2,-9.300214E-2,-7.4975096E-2,2.9667213E-3],"categories":[],"categories_nodes":[],"categories_segments":[],"categories_sizes":[],"default_left":[0,0,0,0,0,0,0,0,0,0,0,0,0,0,0],"id":58,"left_children":[1,3,5,7,9,11,13,-1,-1,-1,-1,-1,-1,-1,-1],"loss_changes":[3.0308039E1,5.595853E1,2.4149319E1,1.1601293E2,4.3984882E1,4.2359436E1,3.726557E1,0E0,0E0,0E0,0E0,0E0,0E0,0E0,0E0],"parents":[2147483647,0,0,1,1,2,2,3,3,4,4,5,5,6,6],"right_children":[2,4,6,8,10,12,14,-1,-1,-1,-1,-1,-1,-1,-1],"split_conditions":[1.15724E-3,2.553122E2,2.3489075E2,2.5355122E2,2.0038724E-2,8.31986E-3,2.3493336E2,-3.155976E-2,5.7285048E-2,-1.5116309E-2,3.990172E-2,4.5049224E-2,-9.300214E-2,-7.4975096E-2,2.9667213E-3],"split_indices":[7,1,1,1,2,2,1,0,0,0,0,0,0,0,0],"split_type":[0,0,0,0,0,0,0,0,0,0,0,0,0,0,0],"sum_hessian":[3.0619749E3,9.6109454E2,2.1008801E3,1.496687E2,8.1142584E2,6.5728966E1,2.0351512E3,6.180129E1,8.786742E1,7.742554E2,3.717046E1,6.0553112E1,5.175858E0,1.4453974E1,2.0206973E3],"tree_param":{"num_deleted":"0","num_feature":"8","num_nodes":"15","size_leaf_vector":"1"}},{"base_weights":[-3.206792E-4,-1.9813146E-1,4.9194224E-2,2.3601916E-1,-5.864511E-1,-8.681934E-2,1.7859773E-1,-4.1711044E-2,1.989933E-2,3.84204E-2,-3.3215582E-2,2.7111971E-3,-2.7878767E-2,4.226463E-2,4.6665403E-3],"categories":[],"categories_nodes":[],"categories_segments":[],"categories_sizes":[],"default_left":[0,0,0,0,0,0,0,0,0,0,0,0,0,0,0],"id":59,"left_children":[1,3,5,7,9,11,13,-1,-1,-1,-1,-1,-1,-1,-1],"loss_changes":[2.9972097E1,1.034211E2,4.3092083E1,5.059463E1,3.465448E1,7.930286E1,7.123716E1,0E0,0E0,0E0,0E0,0E0,0E0,0E0,0E0],"parents":[2147483647,0,0,1,1,2,2,3,3,4,4,5,5,6,6],"right_children":[2,4,6,8,10,12,14,-1,-1,-1,-1,-1,-1,-1,-1],"split_conditions":[9.7615033E-4,2.64865E2,2.6894504E2,2.5355122E2,-8.989844E-3,2.61551E2,2.695883E2,-4.1711044E-2,1.989933E-2,3.84204E-2,-3.3215582E-2,2.7111971E-3,-2.7878767E-2,4.226463E-2,4.6665403E-3],"split_indices":[4,0,1,1,2,0,1,0,0,0,0,0,0,0,0],"split_type":[0,0,0,0,0,0,0,0,0,0,0,0,0,0,0],"sum_hessian":[3.0580742E3,6.1162933E2,2.4464448E3,2.8895874E2,3.2267056E2,1.1929192E3,1.2535256E3,3.7436596E1,2.5152216E2,1.7053404E1,3.0561716E2,9.185863E2,2.7433298E2,1.4112988E2,1.1123958E3],"tree_param":{"num_deleted":"0","num_feature":"8","num_nodes":"15","size_leaf_vector":"1"}},{"base_weights":[-3.2489205E-4,1.1207527E-2,-8.142134E-1,-8.091456E-3,6.6473925E-1,-2.2348408E-1,-5.3944796E-2,-1.3139345E-3,2.8664231E-2,5.0986964E-2,-2.1068469E-2,1.6368624E-2,-5.378681E-2],"categories":[],"categories_nodes":[],"categories_segments":[],"categories_sizes":[],"default_left":[0,0,0,0,0,0,0,0,0,0,0,0,0],"id":60,"left_children":[1,3,5,7,9,11,-1,-1,-1,-1,-1,-1,-1],"loss_changes":[2.8651112E1,3.7967525E1,6.427183E0,3.093802E1,3.372173E1,7.139523E0,0E0,0E0,0E0,0E0,0E0,0E0,0E0],"parents":[2147483647,0,0,1,1,2,2,3,3,4,4,5,5],"right_children":[2,4,6,8,10,12,-1,-1,-1,-1,-1,-1,-1],"split_conditions":[2.91924E2,2.9134293E2,7.2359433E-4,4.9789487E-3,2.5265769E-3,2.9277393E2,-5.3944796E-2,-1.3139345E-3,2.8664231E-2,5.0986964E-2,-2.1068469E-2,1.6368624E-2,-5.378681E-2],"split_indices":[0,1,2,4,4,1,0,0,0,0,0,0,0],"split_type":[0,0,0,0,0,0,0,0,0,0,0,0,0],"sum_hessian":[3.0505312E3,3.008883E3,4.1648235E1,2.9235378E3,8.534531E1,1.3457529E1,2.8190706E1,2.8357808E3,8.775715E1,6.436755E1,2.0977747E1,8.5482235E0,4.909305E0],"tree_param":{"num_deleted":"0","num_feature":"8","num_nodes":"13","size_leaf_vector":"1"}},{"base_weights":[-3.1947813E-4,5.860285E-1,-1.631471E-2,8.0968297E-1,-9.075971E-2,-1.5558168E0,-6.149938E-3,2.0632455E-3,5.4413408E-2,-9.072685E-2,4.9785133E-2,-1.0203209E-2,2.2149459E-3],"categories":[],"categories_nodes":[],"categories_segments":[],"categories_sizes":[],"default_left":[0,0,0,0,0,0,0,0,0,0,0,0,0],"id":61,"left_children":[1,3,5,7,-1,9,11,-1,-1,-1,-1,-1,-1],"loss_changes":[2.8601974E1,4.4961456E1,4.644586E1,1.59621315E1,0E0,1.4658386E1,2.946524E1,0E0,0E0,0E0,0E0,0E0,0E0],"parents":[2147483647,0,0,1,1,2,2,3,3,5,5,6,6],"right_children":[2,4,6,8,-1,10,12,-1,-1,-1,-1,-1,-1],"split_conditions":[2.3489075E2,8.31986E-3,2.3493336E2,4.222451E1,-9.075971E-2,4.143143E-3,9.7615033E-4,2.0632455E-3,5.4413408E-2,-9.072685E-2,4.9785133E-2,-1.0203209E-2,2.2149459E-3],"split_indices":[1,2,1,6,0,2,4,0,0,0,0,0,0],"split_type":[0,0,0,0,0,0,0,0,0,0,0,0,0],"sum_hessian":[3.0476309E3,7.998351E1,2.9676472E3,7.3774796E1,6.208721E0,1.846836E1,2.949179E3,1.9935389E1,5.3839405E1,1.7030348E1,1.4380114E0,5.984347E2,2.3507441E3],"tree_param":{"num_deleted":"0","num_feature":"8","num_nodes":"13","size_leaf_vector":"1"}},{"base_weights":[-3.2203505E-4,-6.3994354E-1,1.4051142E-2,2.7687752E-1,-8.4077E-1,2.6973236E-2,-7.1307784E-1,-4.0456776E-2,4.5620594E-2,1.2858962E-2,-4.724093E-2,5.719551E-4,4.278326E-2,-4.9962517E-2,1.3644616E-2],"categories":[],"categories_nodes":[],"categories_segments":[],"categories_sizes":[],"default_left":[0,0,0,0,0,0,0,0,0,0,0,0,0,0,0],"id":62,"left_children":[1,3,5,7,9,11,13,-1,-1,-1,-1,-1,-1,-1,-1],"loss_changes":[2.8009811E1,1.2561516E1,2.8017473E1,9.561777E0,6.546253E0,3.7691765E1,1.4963757E1,0E0,0E0,0E0,0E0,0E0,0E0,0E0,0E0],"parents":[2147483647,0,0,1,1,2,2,3,3,4,4,5,5,6,6],"right_children":[2,4,6,8,10,12,14,-1,-1,-1,-1,-1,-1,-1,-1],"split_conditions":[3.635042E-5,2.58516E2,2.91634E2,2.56443E2,-1.0313322E-2,2.9182202E2,4.395352E-3,-4.0456776E-2,4.5620594E-2,1.2858962E-2,-4.724093E-2,5.719551E-4,4.278326E-2,-4.9962517E-2,1.3644616E-2],"split_indices":[7,0,0,0,2,1,7,0,0,0,0,0,0,0,0],"split_type":[0,0,0,0,0,0,0,0,0,0,0,0,0,0,0],"sum_hessian":[3.0447546E3,6.5959595E1,2.978795E3,1.1784019E1,5.417558E1,2.927728E3,5.1066902E1,4.249403E0,7.534617E0,4.562208E0,4.961337E1,2.8748518E3,5.2876347E1,3.95688E1,1.14981E1],"tree_param":{"num_deleted":"0","num_feature":"8","num_nodes":"15","size_leaf_vector":"1"}},{"base_weights":[-3.2198327E-4,-1.7956443E-2,5.122471E-1,3.583618E-2,-3.154054E-1,-1.03779E0,8.348484E-1,1.9441197E-2,-8.021394E-4,3.075034E-2,-1.9858688E-2,2.1942599E-2,-6.2164444E-2,5.837515E-2,-3.306369E-2],"categories":[],"categories_nodes":[],"categories_segments":[],"categories_sizes":[],"default_left":[0,0,0,0,0,0,0,0,0,0,0,0,0,0,0],"id":63,"left_children":[1,3,5,7,9,11,13,-1,-1,-1,-1,-1,-1,-1,-1],"loss_changes":[2.7514622E1,4.7097244E1,5.1492775E1,4.5659317E1,3.4539368E1,5.9734573E0,4.2755665E1,0E0,0E0,0E0,0E0,0E0,0E0,0E0,0E0],"parents":[2147483647,0,0,1,1,2,2,3,3,4,4,5,5,6,6],"right_children":[2,4,6,8,10,12,14,-1,-1,-1,-1,-1,-1,-1,-1],"split_conditions":[2.0722961E-2,9.251801E-3,2.557159E2,2.553122E2,2.53736E2,2.54251E2,6.366213E1,1.9441197E-2,-8.021394E-4,3.075034E-2,-1.9858688E-2,2.1942599E-2,-6.2164444E-2,5.837515E-2,-3.306369E-2],"split_indices":[2,2,1,1,0,0,6,0,0,0,0,0,0,0,0],"split_type":[0,0,0,0,0,0,0,0,0,0,0,0,0,0,0],"sum_hessian":[3.0420127E3,2.9417688E3,1.00243835E2,2.491982E3,4.4978687E2,1.6887194E1,8.335664E1,3.184863E2,2.1734956E3,3.5808933E1,4.1397794E2,1.9243025E0,1.4962892E1,6.837376E1,1.4982886E1],"tree_param":{"num_deleted":"0","num_feature":"8","num_nodes":"15","size_leaf_vector":"1"}},{"base_weights":[-2.9104305E-4,1.5832587E-1,-5.3441763E-2,-8.289333E-2,2.7576104E-1,2.1250276E-1,-1.12229936E-1,2.5129346E-2,-1.1123807E-2,2.8365081E-2,6.3281255E-3,-7.1358667E-3,3.918433E-2,-5.9649676E-2,-3.089247E-3],"categories":[],"categories_nodes":[],"categories_segments":[],"categories_sizes":[],"default_left":[0,0,0,0,0,0,0,0,0,0,0,0,0,0,0],"id":64,"left_children":[1,3,5,7,9,11,13,-1,-1,-1,-1,-1,-1,-1,-1],"loss_changes":[2.5613222E1,2.162344E1,3.560137E1,2.0578949E1,2.2245956E1,8.376768E1,1.0156543E2,0E0,0E0,0E0,0E0,0E0,0E0,0E0,0E0],"parents":[2147483647,0,0,1,1,2,2,3,3,4,4,5,5,6,6],"right_children":[2,4,6,8,10,12,14,-1,-1,-1,-1,-1,-1,-1,-1],"split_conditions":[-7.961027E-3,-1.9586233E-2,2.553122E2,-4.8002318E-2,2.6295126E2,2.538324E2,2.5555186E2,2.5129346E-2,-1.1123807E-2,2.8365081E-2,6.3281255E-3,-7.1358667E-3,3.918433E-2,-5.9649676E-2,-3.089247E-3],"split_indices":[2,2,1,2,1,1,1,0,0,0,0,0,0,0,0],"split_type":[0,0,0,0,0,0,0,0,0,0,0,0,0,0,0],"sum_hessian":[3.036121E3,7.6152734E2,2.2745938E3,2.4944528E2,5.120821E2,4.1130902E2,1.8632847E3,4.752038E1,2.019249E2,1.7240082E2,3.3968127E2,2.5405928E2,1.5724974E2,8.208109E1,1.7812035E3],"tree_param":{"num_deleted":"0","num_feature":"8","num_nodes":"15","size_leaf_vector":"1"}},{"base_weights":[-2.6105336E-4,8.2983235E-3,-9.824561E-1,-5.3313315E-2,1.7455891E-1,1.280202E-2,-5.2748412E-2,-4.5793774E-4,-5.291129E-2,8.240083E-2,8.065273E-4],"categories":[],"categories_nodes":[],"categories_segments":[],"categories_sizes":[],"default_left":[0,0,0,0,0,0,0,0,0,0,0],"id":65,"left_children":[1,3,5,7,9,-1,-1,-1,-1,-1,-1],"loss_changes":[2.5513954E1,3.0828838E1,2.6247272E0,9.742804E1,1.8992407E2,0E0,0E0,0E0,0E0,0E0,0E0],"parents":[2147483647,0,0,1,1,2,2,3,3,4,4],"right_children":[2,4,6,8,10,-1,-1,-1,-1,-1,-1],"split_conditions":[2.92733E2,2.758694E2,-1.5320857E-3,2.7417508E2,2.789545E2,1.280202E-2,-5.2748412E-2,-4.5793774E-4,-5.291129E-2,8.240083E-2,8.065273E-4],"split_indices":[0,1,2,1,1,0,0,0,0,0,0],"split_type":[0,0,0,0,0,0,0,0,0,0,0],"sum_hessian":[3.0328848E3,3.007666E3,2.521887E1,2.1949548E3,8.1271106E2,1.2548709E0,2.3963999E1,2.1035374E3,9.141762E1,7.798762E1,7.3472345E2],"tree_param":{"num_deleted":"0","num_feature":"8","num_nodes":"11","size_leaf_vector":"1"}},{"base_weights":[-2.6832698E-4,-1.717928E-2,4.9793845E-1,3.3861797E-2,-3.005368E-1,-1.0091218E0,8.096445E-1,1.8092608E-2,-6.968814E-4,-8.919498E-3,-4.5966998E-2,2.150704E-2,-6.0693283E-2,6.6367134E-2,-5.889405E-3],"categories":[],"categories_nodes":[],"categories_segments":[],"categories_sizes":[],"default_left":[0,0,0,0,0,0,0,0,0,0,0,0,0,0,0],"id":66,"left_children":[1,3,5,7,9,11,13,-1,-1,-1,-1,-1,-1,-1,-1],"loss_changes":[2.5557907E1,4.2443108E1,4.759971E1,3.8995605E1,3.36921E1,5.6828537E0,4.0043415E1,0E0,0E0,0E0,0E0,0E0,0E0,0E0,0E0],"parents":[2147483647,0,0,1,1,2,2,3,3,4,4,5,5,6,6],"right_children":[2,4,6,8,10,12,14,-1,-1,-1,-1,-1,-1,-1,-1],"split_conditions":[2.0722961E-2,9.251801E-3,2.557159E2,2.553122E2,2.700542E2,2.54251E2,6.021284E1,1.8092608E-2,-6.968814E-4,-8.919498E-3,-4.5966998E-2,2.150704E-2,-6.0693283E-2,6.6367134E-2,-5.889405E-3],"split_indices":[2,2,1,1,1,0,6,0,0,0,0,0,0,0,0],"split_type":[0,0,0,0,0,0,0,0,0,0,0,0,0,0,0],"sum_hessian":[3.0315098E3,2.9329211E3,9.858851E1,2.4859995E3,4.469216E2,1.6512962E1,8.207555E1,3.153766E2,2.170623E3,3.7432172E2,7.259988E1,1.9194145E0,1.4593549E1,5.2396385E1,2.9679161E1],"tree_param":{"num_deleted":"0","num_feature":"8","num_nodes":"15","size_leaf_vector":"1"}},{"base_weights":[-2.541079E-4,-4.1929126E-2,1.9939217E-1,2.3836128E-3,-3.5850978E-1,-3.038429E-1,2.3920466E-1,-8.6906384E-4,5.6931037E-2,2.521577E-2,-2.5221482E-2,-1.1217E-3,-7.701237E-2,-1.8924678E-3,1.830027E-2],"categories":[],"categories_nodes":[],"categories_segments":[],"categories_sizes":[],"default_left":[0,0,0,0,0,0,0,0,0,0,0,0,0,0,0],"id":67,"left_children":[1,3,5,7,9,11,13,-1,-1,-1,-1,-1,-1,-1,-1],"loss_changes":[2.5197575E1,3.5148758E1,1.0551018E1,4.9399837E1,3.898753E1,1.3459505E1,1.7059853E1,0E0,0E0,0E0,0E0,0E0,0E0,0E0,0E0],"parents":[2147483647,0,0,1,1,2,2,3,3,4,4,5,5,6,6],"right_children":[2,4,6,8,10,12,14,-1,-1,-1,-1,-1,-1,-1,-1],"split_conditions":[3.654671E-3,6.2294514E1,-1.7936639E0,2.4488624E-2,2.55437E2,4.9244072E1,2.58603E2,-8.6906384E-4,5.6931037E-2,2.521577E-2,-2.5221482E-2,-1.1217E-3,-7.701237E-2,-1.8924678E-3,1.830027E-2],"split_indices":[7,6,5,2,0,6,0,0,0,0,0,0,0,0,0],"split_type":[0,0,0,0,0,0,0,0,0,0,0,0,0,0,0],"sum_hessian":[3.0264543E3,2.5044539E3,5.220004E2,2.197812E3,3.0664185E2,3.7783257E1,4.8421716E2,2.1612026E3,3.6609505E1,4.400194E1,2.626399E2,3.160746E1,6.1757965E0,1.5225288E2,3.319643E2],"tree_param":{"num_deleted":"0","num_feature":"8","num_nodes":"15","size_leaf_vector":"1"}},{"base_weights":[-2.361838E-4,-6.067026E-1,1.3291836E-2,2.0834957E-1,-8.176345E-1,2.1674996E-2,-9.7294635E-1,-5.617075E-2,2.9084636E-2,-7.660704E-2,-2.9608486E-2,-1.965702E-3,9.307388E-3,-5.238677E-2,1.243639E-2],"categories":[],"categories_nodes":[],"categories_segments":[],"categories_sizes":[],"default_left":[0,0,0,0,0,0,0,0,0,0,0,0,0,0,0],"id":68,"left_children":[1,3,5,7,9,11,13,-1,-1,-1,-1,-1,-1,-1,-1],"loss_changes":[2.482374E1,1.1520472E1,2.449127E1,7.798258E0,7.5743637E0,2.9455751E1,2.5418377E0,0E0,0E0,0E0,0E0,0E0,0E0,0E0,0E0],"parents":[2147483647,0,0,1,1,2,2,3,3,4,4,5,5,6,6],"right_children":[2,4,6,8,10,12,14,-1,-1,-1,-1,-1,-1,-1,-1],"split_conditions":[3.635042E-5,2.58902E2,2.92733E2,2.55437E2,2.629923E2,2.758694E2,9.506947E-3,-5.617075E-2,2.9084636E-2,-7.660704E-2,-2.9608486E-2,-1.965702E-3,9.307388E-3,-5.238677E-2,1.243639E-2],"split_indices":[7,0,0,0,1,1,7,0,0,0,0,0,0,0,0],"split_type":[0,0,0,0,0,0,0,0,0,0,0,0,0,0,0],"sum_hessian":[3.0237192E3,6.501955E1,2.9586997E3,1.3369874E1,5.164967E1,2.9347322E3,2.3967606E1,2.4875135E0,1.088236E1,1.0998754E1,4.0650917E1,2.1414211E3,7.9331104E2,2.271915E1,1.248455E0],"tree_param":{"num_deleted":"0","num_feature":"8","num_nodes":"15","size_leaf_vector":"1"}},{"base_weights":[-2.917834E-4,5.3573406E-1,-1.4615614E-2,7.57499E-1,-8.8290535E-2,-1.5070343E0,-4.688687E-3,-8.196691E-5,5.196896E-2,-8.768937E-2,4.7983743E-2,-9.260205E-3,2.0516193E-3],"categories":[],"categories_nodes":[],"categories_segments":[],"categories_sizes":[],"default_left":[0,0,0,0,0,0,0,0,0,0,0,0,0],"id":69,"left_children":[1,3,5,7,-1,9,11,-1,-1,-1,-1,-1,-1],"loss_changes":[2.3219034E1,4.151039E1,4.362933E1,1.5513687E1,0E0,1.3527088E1,2.416464E1,0E0,0E0,0E0,0E0,0E0,0E0],"parents":[2147483647,0,0,1,1,2,2,3,3,5,5,6,6],"right_children":[2,4,6,8,-1,10,12,-1,-1,-1,-1,-1,-1],"split_conditions":[2.3489075E2,8.31986E-3,2.3493336E2,4.222451E1,-8.8290535E-2,4.143143E-3,9.7615033E-4,-8.196691E-5,5.196896E-2,-8.768937E-2,4.7983743E-2,-9.260205E-3,2.0516193E-3],"split_indices":[1,2,1,6,0,2,4,0,0,0,0,0,0],"split_type":[0,0,0,0,0,0,0,0,0,0,0,0,0],"sum_hessian":[3.0221018E3,7.770817E1,2.9443938E3,7.1490585E1,6.217588E0,1.8458918E1,2.9259348E3,1.9626953E1,5.186363E1,1.704306E1,1.4158572E0,5.906978E2,2.335237E3],"tree_param":{"num_deleted":"0","num_feature":"8","num_nodes":"13","size_leaf_vector":"1"}},{"base_weights":[-2.968891E-4,-1.5490093E-2,4.9944904E-1,1.8732186E-2,-2.5758755E-1,6.3201857E-1,-8.933076E-1,-1.4171952E-4,4.0347643E-2,2.8221061E-2,-1.9301368E-2,2.2384515E-2,7.337516E-2,-1.00066856E-1,1.3607144E-2],"categories":[],"categories_nodes":[],"categories_segments":[],"categories_sizes":[],"default_left":[0,0,0,0,0,0,0,0,0,0,0,0,0,0,0],"id":70,"left_children":[1,3,5,7,9,11,13,-1,-1,-1,-1,-1,-1,-1,-1],"loss_changes":[2.2940155E1,2.4298178E1,1.7023842E1,4.3689384E1,3.856587E1,1.1968491E1,1.1084726E1,0E0,0E0,0E0,0E0,0E0,0E0,0E0,0E0],"parents":[2147483647,0,0,1,1,2,2,3,3,4,4,5,5,6,6],"right_children":[2,4,6,8,10,12,14,-1,-1,-1,-1,-1,-1,-1,-1],"split_conditions":[4.9789487E-3,6.2294514E1,2.724994E2,2.0722961E-2,2.55082E2,1.1356466E-2,2.7477E2,-1.4171952E-4,4.0347643E-2,2.8221061E-2,-1.9301368E-2,2.2384515E-2,7.337516E-2,-1.00066856E-1,1.3607144E-2],"split_indices":[4,6,1,2,0,2,0,0,0,0,0,0,0,0,0],"split_type":[0,0,0,0,0,0,0,0,0,0,0,0,0,0,0],"sum_hessian":[3.019308E3,2.9311643E3,8.814383E1,2.568947E3,3.622172E2,8.098179E1,7.1620398E0,2.5014998E3,6.744736E1,4.8489876E1,3.1372733E2,6.7602806E1,1.33789835E1,3.303797E0,3.8582425E0],"tree_param":{"num_deleted":"0","num_feature":"8","num_nodes":"15","size_leaf_vector":"1"}},{"base_weights":[-2.548198E-4,7.456616E-3,-9.640507E-1,-5.066752E-2,1.6385792E-1,1.2261771E-2,-5.2054703E-2,-5.868257E-4,-5.42002E-2,7.859131E-2,5.9531594E-4],"categories":[],"categories_nodes":[],"categories_segments":[],"categories_sizes":[],"default_left":[0,0,0,0,0,0,0,0,0,0,0],"id":71,"left_children":[1,3,5,7,9,-1,-1,-1,-1,-1,-1],"loss_changes":[2.2436571E1,2.7233862E1,2.4878044E0,8.785528E1,1.7363426E2,0E0,0E0,0E0,0E0,0E0,0E0],"parents":[2147483647,0,0,1,1,2,2,3,3,4,4],"right_children":[2,4,6,8,10,-1,-1,-1,-1,-1,-1],"split_conditions":[2.92733E2,2.758694E2,-1.5320857E-3,2.746498E2,2.789545E2,1.2261771E-2,-5.2054703E-2,-5.868257E-4,-5.42002E-2,7.859131E-2,5.9531594E-4],"split_indices":[0,1,2,1,1,0,0,0,0,0,0],"split_type":[0,0,0,0,0,0,0,0,0,0,0],"sum_hessian":[3.0168457E3,2.9938835E3,2.2962124E1,2.183205E3,8.106785E2,1.2445387E0,2.1717585E1,2.1049136E3,7.829138E1,7.805787E1,7.3262067E2],"tree_param":{"num_deleted":"0","num_feature":"8","num_nodes":"11","size_leaf_vector":"1"}},{"base_weights":[-2.6231847E-4,-5.790341E-1,1.2535443E-2,2.6992872E-1,-7.677528E-1,2.35669E-2,-6.625752E-1,-5.4537397E-2,3.5131123E-2,-4.9490895E-2,-1.1722515E-2,-3.6110872E-4,2.0212652E-2,-5.830949E-2,-4.03038E-3],"categories":[],"categories_nodes":[],"categories_segments":[],"categories_sizes":[],"default_left":[0,0,0,0,0,0,0,0,0,0,0,0,0,0,0],"id":72,"left_children":[1,3,5,7,9,11,13,-1,-1,-1,-1,-1,-1,-1,-1],"loss_changes":[2.2348154E1,1.0664843E1,2.1999912E1,8.190988E0,6.122965E0,3.405736E1,1.3825865E1,0E0,0E0,0E0,0E0,0E0,0E0,0E0,0E0],"parents":[2147483647,0,0,1,1,2,2,3,3,4,4,5,5,6,6],"right_children":[2,4,6,8,10,12,14,-1,-1,-1,-1,-1,-1,-1,-1],"split_conditions":[3.635042E-5,2.58516E2,2.91634E2,2.55437E2,3.721138E-5,2.8837802E2,1.5674192E-3,-5.4537397E-2,3.5131123E-2,-4.9490895E-2,-1.1722515E-2,-3.6110872E-4,2.0212652E-2,-5.830949E-2,-4.03038E-3],"split_indices":[7,0,0,0,3,1,4,0,0,0,0,0,0,0,0],"split_type":[0,0,0,0,0,0,0,0,0,0,0,0,0,0,0],"sum_hessian":[3.0151938E3,6.427224E1,2.9509216E3,1.1610659E1,5.266158E1,2.9044277E3,4.64939E1,2.4344137E0,9.176246E0,3.6575623E1,1.6085957E1,2.6880085E3,2.1641931E2,2.4386654E1,2.2107244E1],"tree_param":{"num_deleted":"0","num_feature":"8","num_nodes":"15","size_leaf_vector":"1"}},{"base_weights":[-3.0095445E-4,-3.911973E-2,1.8551734E-1,1.4331528E-3,-3.311753E-1,-3.0987903E-1,2.2501126E-1,-8.402741E-4,5.4399382E-2,2.357975E-2,-2.331595E-2,3.4877922E-2,-7.278832E-2,-1.8378993E-2,1.3687289E-2],"categories":[],"categories_nodes":[],"categories_segments":[],"categories_sizes":[],"default_left":[0,0,0,0,0,0,0,0,0,0,0,0,0,0,0],"id":73,"left_children":[1,3,5,7,9,11,13,-1,-1,-1,-1,-1,-1,-1,-1],"loss_changes":[2.1744493E1,2.9533785E1,1.0261801E1,4.342914E1,3.3204155E1,4.5903362E1,1.4050835E1,0E0,0E0,0E0,0E0,0E0,0E0,0E0,0E0],"parents":[2147483647,0,0,1,1,2,2,3,3,4,4,5,5,6,6],"right_children":[2,4,6,8,10,12,14,-1,-1,-1,-1,-1,-1,-1,-1],"split_conditions":[3.654671E-3,6.2294514E1,2.40893E2,2.4488624E-2,2.55437E2,3.2880593E-3,-1.7936639E0,-8.402741E-4,5.4399382E-2,2.357975E-2,-2.331595E-2,3.4877922E-2,-7.278832E-2,-1.8378993E-2,1.3687289E-2],"split_indices":[7,6,0,2,0,4,5,0,0,0,0,0,0,0,0],"split_type":[0,0,0,0,0,0,0,0,0,0,0,0,0,0,0],"sum_hessian":[3.0125195E3,2.492589E3,5.199303E2,2.189557E3,3.0303217E2,3.7883835E1,4.8204645E2,2.1543787E3,3.5178333E1,4.3305073E1,2.5972708E2,2.036801E1,1.7515827E1,3.613369E1,4.4591278E2],"tree_param":{"num_deleted":"0","num_feature":"8","num_nodes":"15","size_leaf_vector":"1"}},{"base_weights":[-2.6749715E-4,7.770957E-1,-9.312362E-3,9.7968185E-1,-9.422114E-2,-2.4113152E-2,4.7366184E-1,-2.658206E-2,6.135128E-2,-4.168198E-3,6.186209E-3,3.0080566E-2,-4.2934906E-2],"categories":[],"categories_nodes":[],"categories_segments":[],"categories_sizes":[],"default_left":[0,0,0,0,0,0,0,0,0,0,0,0,0],"id":74,"left_children":[1,3,5,7,-1,9,11,-1,-1,-1,-1,-1,-1],"loss_changes":[2.1175713E1,2.052306E1,2.1292446E1,1.2931044E1,0E0,2.532054E1,1.5615078E1,0E0,0E0,0E0,0E0,0E0,0E0],"parents":[2147483647,0,0,1,1,2,2,3,3,5,5,6,6],"right_children":[2,4,6,8,-1,10,12,-1,-1,-1,-1,-1,-1],"split_conditions":[2.32696E2,3.5708104E-3,4.9789487E-3,1.4621271E-3,-9.422114E-2,2.758694E2,2.724994E2,-2.658206E-2,6.135128E-2,-4.168198E-3,6.186209E-3,3.0080566E-2,-4.2934906E-2],"split_indices":[0,4,4,4,0,1,1,0,0,0,0,0,0],"split_type":[0,0,0,0,0,0,0,0,0,0,0,0,0],"sum_hessian":[3.0096726E3,3.3639065E1,2.9760334E3,3.1846891E1,1.7921737E0,2.8884663E3,8.7567245E1,4.3173795E0,2.7529512E1,2.0623472E3,8.261192E2,8.039518E1,7.172064E0],"tree_param":{"num_deleted":"0","num_feature":"8","num_nodes":"13","size_leaf_vector":"1"}},{"base_weights":[-2.6518453E-4,6.833091E-3,-9.4981474E-1,-8.180132E-3,5.564446E-1,-5.1546313E-2,1.20662E-2,6.485755E-5,-6.594809E-2,3.703852E-2,-6.097394E-2],"categories":[],"categories_nodes":[],"categories_segments":[],"categories_sizes":[],"default_left":[0,0,0,0,0,0,0,0,0,0,0],"id":75,"left_children":[1,3,5,7,9,-1,-1,-1,-1,-1,-1],"loss_changes":[2.0289679E1,2.4659573E1,2.4067822E0,3.6145435E1,2.6915686E1,0E0,0E0,0E0,0E0,0E0,0E0],"parents":[2147483647,0,0,1,1,2,2,3,3,4,4],"right_children":[2,4,6,8,10,-1,-1,-1,-1,-1,-1],"split_conditions":[2.92733E2,2.9154346E2,9.506947E-3,2.90946E2,2.928648E2,-5.1546313E-2,1.20662E-2,6.485755E-5,-6.594809E-2,3.703852E-2,-6.097394E-2],"split_indices":[0,1,7,0,1,0,0,0,0,0,0],"split_type":[0,0,0,0,0,0,0,0,0,0,0],"sum_hessian":[3.008302E3,2.986966E3,2.1336002E1,2.9085022E3,7.846372E1,2.0101667E1,1.2343347E0,2.888616E3,1.9886414E1,7.161371E1,6.850016E0],"tree_param":{"num_deleted":"0","num_feature":"8","num_nodes":"11","size_leaf_vector":"1"}},{"base_weights":[-2.9977737E-4,5.059762E-1,-1.3612056E-2,7.256415E-1,-8.609121E-2,-1.4404255E0,-4.1118297E-3,2.9694603E-3,5.1895272E-2,-8.364342E-2,4.5917135E-2,-8.471312E-3,1.8821982E-3],"categories":[],"categories_nodes":[],"categories_segments":[],"categories_sizes":[],"default_left":[0,0,0,0,0,0,0,0,0,0,0,0,0],"id":76,"left_children":[1,3,5,7,-1,9,11,-1,-1,-1,-1,-1,-1],"loss_changes":[2.027532E1,3.8968315E1,3.9727314E1,1.4680977E1,0E0,1.2164829E1,2.0113396E1,0E0,0E0,0E0,0E0,0E0,0E0],"parents":[2147483647,0,0,1,1,2,2,3,3,5,5,6,6],"right_children":[2,4,6,8,-1,10,12,-1,-1,-1,-1,-1,-1],"split_conditions":[2.3489075E2,8.31986E-3,2.3493336E2,4.380351E1,-8.609121E-2,4.143143E-3,9.7615033E-4,2.9694603E-3,5.1895272E-2,-8.364342E-2,4.5917135E-2,-8.471312E-3,1.8821982E-3],"split_indices":[1,2,1,6,0,2,4,0,0,0,0,0,0],"split_type":[0,0,0,0,0,0,0,0,0,0,0,0,0],"sum_hessian":[3.0063257E3,7.607636E1,2.9302495E3,6.986211E1,6.214255E0,1.8385336E1,2.911864E3,2.2674198E1,4.718791E1,1.7000795E1,1.3845419E0,5.86562E2,2.325302E3],"tree_param":{"num_deleted":"0","num_feature":"8","num_nodes":"13","size_leaf_vector":"1"}},{"base_weights":[-3.0301907E-4,-5.5135477E-1,1.1781415E-2,2.649663E-1,-7.341695E-1,1.8756287E-2,-9.410682E-1,-3.673217E-2,4.1688584E-2,1.451086E-2,-4.18563E-2,-3.5639523E-4,1.5557057E-2,1.17448745E-2,-5.123821E-2],"categories":[],"categories_nodes":[],"categories_segments":[],"categories_sizes":[],"default_left":[0,0,0,0,0,0,0,0,0,0,0,0,0,0,0],"id":77,"left_children":[1,3,5,7,9,11,13,-1,-1,-1,-1,-1,-1,-1,-1],"loss_changes":[2.0014511E1,9.819763E0,1.9564175E1,7.74028E0,5.828596E0,2.2106516E1,2.3461857E0,0E0,0E0,0E0,0E0,0E0,0E0,0E0,0E0],"parents":[2147483647,0,0,1,1,2,2,3,3,4,4,5,5,6,6],"right_children":[2,4,6,8,10,12,14,-1,-1,-1,-1,-1,-1,-1,-1],"split_conditions":[3.635042E-5,2.58516E2,2.92733E2,2.56443E2,-1.0313322E-2,2.8837802E2,-1.5320857E-3,-3.673217E-2,4.1688584E-2,1.451086E-2,-4.18563E-2,-3.5639523E-4,1.5557057E-2,1.17448745E-2,-5.123821E-2],"split_indices":[7,0,0,0,2,1,2,0,0,0,0,0,0,0,0],"split_type":[0,0,0,0,0,0,0,0,0,0,0,0,0,0,0],"sum_hessian":[3.0035908E3,6.349694E1,2.9400938E3,1.1535992E1,5.196095E1,2.919702E3,2.0391943E1,4.0779357E0,7.458056E0,4.5793133E0,4.7381634E1,2.6831445E3,2.365573E2,1.2348732E0,1.915707E1],"tree_param":{"num_deleted":"0","num_feature":"8","num_nodes":"15","size_leaf_vector":"1"}},{"base_weights":[-3.1317252E-4,-1.4887829E-2,4.4344446E-1,3.0680386E-2,-2.6917696E-1,-9.9224335E-1,7.4943274E-1,1.701094E-2,-7.0144684E-4,-7.756155E-3,-4.3144777E-2,-6.1096754E-2,1.1881324E-2,6.222654E-2,-4.3829493E-3],"categories":[],"categories_nodes":[],"categories_segments":[],"categories_sizes":[],"default_left":[0,0,0,0,0,0,0,0,0,0,0,0,0,0,0],"id":78,"left_children":[1,3,5,7,9,11,13,-1,-1,-1,-1,-1,-1,-1,-1],"loss_changes":[1.9424189E1,3.3702126E1,4.269841E1,3.41433E1,2.979565E1,5.151701E0,3.2971935E1,0E0,0E0,0E0,0E0,0E0,0E0,0E0,0E0],"parents":[2147483647,0,0,1,1,2,2,3,3,4,4,5,5,6,6],"right_children":[2,4,6,8,10,12,14,-1,-1,-1,-1,-1,-1,-1,-1],"split_conditions":[2.0722961E-2,9.251801E-3,2.557159E2,2.553122E2,2.700542E2,1.7424247E-3,6.021284E1,1.701094E-2,-7.0144684E-4,-7.756155E-3,-4.3144777E-2,-6.1096754E-2,1.1881324E-2,6.222654E-2,-4.3829493E-3],"split_indices":[2,2,1,1,1,3,6,0,0,0,0,0,0,0,0],"split_type":[0,0,0,0,0,0,0,0,0,0,0,0,0,0,0],"sum_hessian":[3.0012793E3,2.9067764E3,9.450293E1,2.46579E3,4.4098636E2,1.6208832E1,7.82941E1,3.1037122E2,2.155419E3,3.7098172E2,7.000465E1,1.366348E1,2.5453522E0,4.889086E1,2.9403236E1],"tree_param":{"num_deleted":"0","num_feature":"8","num_nodes":"15","size_leaf_vector":"1"}},{"base_weights":[-2.9986998E-4,-1.3903231E-2,4.5189524E-1,-6.6073984E-2,1.18712455E-1,2.7098316E-1,1.3641133E0,-1.4261779E-3,-5.1626086E-2,7.5113796E-2,-1.408648E-3,1.9813173E-2,-4.0644355E-2,7.6516114E-2,4.4853256E-5],"categories":[],"categories_nodes":[],"categories_segments":[],"categories_sizes":[],"default_left":[0,0,0,0,0,0,0,0,0,0,0,0,0,0,0],"id":79,"left_children":[1,3,5,7,9,11,13,-1,-1,-1,-1,-1,-1,-1,-1],"loss_changes":[1.8444317E1,2.0146805E1,1.4081579E1,7.580501E1,1.6712779E2,1.0414167E1,3.2260857E0,0E0,0E0,0E0,0E0,0E0,0E0,0E0,0E0],"parents":[2147483647,0,0,1,1,2,2,3,3,4,4,5,5,6,6],"right_children":[2,4,6,8,10,12,14,-1,-1,-1,-1,-1,-1,-1,-1],"split_conditions":[4.9789487E-3,2.758694E2,1.1356466E-2,2.746498E2,2.789545E2,2.724994E2,2.66328E2,-1.4261779E-3,-5.1626086E-2,7.5113796E-2,-1.408648E-3,1.9813173E-2,-4.0644355E-2,7.6516114E-2,4.4853256E-5],"split_indices":[4,1,2,1,1,1,0,0,0,0,0,0,0,0,0],"split_type":[0,0,0,0,0,0,0,0,0,0,0,0,0,0,0],"sum_hessian":[2.9963848E3,2.909818E3,8.656664E1,2.0886492E3,8.2116876E2,7.332234E1,1.3244306E1,2.011523E3,7.712634E1,7.792638E1,7.432424E2,6.629407E1,7.0282693E0,1.1695731E1,1.5485739E0],"tree_param":{"num_deleted":"0","num_feature":"8","num_nodes":"15","size_leaf_vector":"1"}},{"base_weights":[-2.614454E-4,1.3561954E-1,-4.6082586E-2,-1.2297981E-2,3.1706256E-1,1.968323E-1,-9.954439E-2,1.4866354E-2,-2.8967395E-2,6.648608E-2,5.736872E-3,-7.812348E-3,3.7945792E-2,-5.5762064E-2,-2.5946207E-3],"categories":[],"categories_nodes":[],"categories_segments":[],"categories_sizes":[],"default_left":[0,0,0,0,0,0,0,0,0,0,0,0,0,0,0],"id":80,"left_children":[1,3,5,7,9,11,13,-1,-1,-1,-1,-1,-1,-1,-1],"loss_changes":[1.865943E1,2.0287254E1,2.9124708E1,7.343938E1,6.9396095E1,8.04166E1,8.887939E1,0E0,0E0,0E0,0E0,0E0,0E0,0E0,0E0],"parents":[2147483647,0,0,1,1,2,2,3,3,4,4,5,5,6,6],"right_children":[2,4,6,8,10,12,14,-1,-1,-1,-1,-1,-1,-1,-1],"split_conditions":[-7.961027E-3,2.63996E2,2.553122E2,2.6295126E2,2.6960938E2,2.538324E2,2.5555186E2,1.4866354E-2,-2.8967395E-2,6.648608E-2,5.736872E-3,-7.812348E-3,3.7945792E-2,-5.5762064E-2,-2.5946207E-3],"split_indices":[2,0,1,1,1,1,1,0,0,0,0,0,0,0,0],"split_type":[0,0,0,0,0,0,0,0,0,0,0,0,0,0,0],"sum_hessian":[2.9949067E3,7.547531E2,2.2401536E3,4.1630316E2,3.3844998E2,4.0360556E2,1.8365481E3,2.695804E2,1.4672275E2,5.5432438E1,2.8301755E2,2.4833382E2,1.5527174E2,8.1297455E1,1.7552506E3],"tree_param":{"num_deleted":"0","num_feature":"8","num_nodes":"15","size_leaf_vector":"1"}},{"base_weights":[-2.227632E-4,-1.1537271E-1,5.2015476E-2,3.8284788E-1,-2.0729578E-1,-6.172572E-2,1.500628E-1,-2.9734476E-2,5.2368533E-2,-1.2653872E-2,3.4094054E-2,3.6388915E-3,-3.5297357E-2,1.6284768E-2,-2.6876142E-3],"categories":[],"categories_nodes":[],"categories_segments":[],"categories_sizes":[],"default_left":[0,0,0,0,0,0,0,0,0,0,0,0,0,0,0],"id":81,"left_children":[1,3,5,7,9,11,13,-1,-1,-1,-1,-1,-1,-1,-1],"loss_changes":[1.800495E1,4.2860195E1,2.2972479E1,9.536874E1,3.230207E1,8.2713036E1,3.9613422E1,0E0,0E0,0E0,0E0,0E0,0E0,0E0,0E0],"parents":[2147483647,0,0,1,1,2,2,3,3,4,4,5,5,6,6],"right_children":[2,4,6,8,10,12,14,-1,-1,-1,-1,-1,-1,-1,-1],"split_conditions":[1.15724E-3,2.553122E2,2.64477E2,2.5355122E2,1.935274E-2,2.61551E2,-1.4820551E-4,-2.9734476E-2,5.2368533E-2,-1.2653872E-2,3.4094054E-2,3.6388915E-3,-3.5297357E-2,1.6284768E-2,-2.6876142E-3],"split_indices":[7,1,0,1,2,0,2,0,0,0,0,0,0,0,0],"split_type":[0,0,0,0,0,0,0,0,0,0,0,0,0,0,0],"sum_hessian":[2.9912292E3,9.331209E2,2.0581084E3,1.4485356E2,7.8826733E2,9.5297107E2,1.1051373E3,5.8663097E1,8.619047E1,7.50349E2,3.791837E1,7.891051E2,1.6386601E2,5.932881E2,5.118492E2],"tree_param":{"num_deleted":"0","num_feature":"8","num_nodes":"15","size_leaf_vector":"1"}},{"base_weights":[-1.9772582E-4,4.8273328E-1,-1.2727744E-2,6.959129E-1,-8.199514E-2,-6.3397396E-1,7.6144007E-3,2.2876246E-3,5.0390225E-2,3.5355136E-2,-4.7186494E-2,5.298853E-2,-5.92048E-4],"categories":[],"categories_nodes":[],"categories_segments":[],"categories_sizes":[],"default_left":[0,0,0,0,0,0,0,0,0,0,0,0,0],"id":82,"left_children":[1,3,5,7,-1,9,11,-1,-1,-1,-1,-1,-1],"loss_changes":[1.8082743E1,3.5338463E1,3.6814445E1,1.4022404E1,0E0,3.9035397E1,5.776624E1,0E0,0E0,0E0,0E0,0E0,0E0],"parents":[2147483647,0,0,1,1,2,2,3,3,5,5,6,6],"right_children":[2,4,6,8,-1,10,12,-1,-1,-1,-1,-1,-1],"split_conditions":[2.3489075E2,8.31986E-3,2.43438E2,4.380351E1,-8.199514E-2,2.32696E2,2.4901341E2,2.2876246E-3,5.0390225E-2,3.5355136E-2,-4.7186494E-2,5.298853E-2,-5.92048E-4],"split_indices":[1,2,0,6,0,0,1,0,0,0,0,0,0],"split_type":[0,0,0,0,0,0,0,0,0,0,0,0,0],"sum_hessian":[2.9863074E3,7.457354E1,2.911734E3,6.837835E1,6.1951966E0,9.1362755E1,2.820371E3,2.253961E1,4.5838737E1,1.6902266E1,7.446049E1,5.0233707E1,2.7701375E3],"tree_param":{"num_deleted":"0","num_feature":"8","num_nodes":"13","size_leaf_vector":"1"}},{"base_weights":[-1.5783176E-4,9.332052E-3,-6.3059837E-1,-3.9072037E-3,7.632709E-1,-5.770392E-2,-6.356396E-2,1.2790723E-4,-7.105503E-2,4.7436766E-2,-5.357063E-2,4.6533704E-2,-3.6120314E-2],"categories":[],"categories_nodes":[],"categories_segments":[],"categories_sizes":[],"default_left":[0,0,0,0,0,0,0,0,0,0,0,0,0],"id":83,"left_children":[1,3,5,7,9,-1,11,-1,-1,-1,-1,-1,-1],"loss_changes":[1.7867193E1,2.9370337E1,1.3072506E1,2.6505445E1,1.8294662E1,0E0,1.5291349E1,0E0,0E0,0E0,0E0,0E0,0E0],"parents":[2147483647,0,0,1,1,2,2,3,3,4,4,6,6],"right_children":[2,4,6,8,10,-1,12,-1,-1,-1,-1,-1,-1],"split_conditions":[2.91634E2,2.9182202E2,1.5674192E-3,2.90946E2,2.928648E2,-5.770392E-2,4.5269897E1,1.2790723E-4,-7.105503E-2,4.7436766E-2,-5.357063E-2,4.6533704E-2,-3.6120314E-2],"split_indices":[0,1,4,0,1,0,6,0,0,0,0,0,0],"split_type":[0,0,0,0,0,0,0,0,0,0,0,0,0],"sum_hessian":[2.9844395E3,2.941152E3,4.328733E1,2.891374E3,4.977806E1,2.1969778E1,2.131755E1,2.879237E3,1.2137112E1,4.5646626E1,4.1314354E0,8.331762E0,1.2985789E1],"tree_param":{"num_deleted":"0","num_feature":"8","num_nodes":"13","size_leaf_vector":"1"}},{"base_weights":[-1.9321157E-4,-5.177752E-1,1.1030124E-2,2.6007438E-1,-6.936099E-1,1.9205282E-2,-7.1370155E-1,-5.1259276E-2,3.2711633E-2,-6.37492E-2,-2.4181565E-2,3.4741467E-4,3.2902066E-2,-9.342795E-3,-5.145508E-2],"categories":[],"categories_nodes":[],"categories_segments":[],"categories_sizes":[],"default_left":[0,0,0,0,0,0,0,0,0,0,0,0,0,0,0],"id":84,"left_children":[1,3,5,7,9,11,13,-1,-1,-1,-1,-1,-1,-1,-1],"loss_changes":[1.7335737E1,8.843374E0,1.731986E1,6.9551654E0,5.723179E0,2.2619728E1,5.226078E0,0E0,0E0,0E0,0E0,0E0,0E0,0E0,0E0],